<?xml version="1.0"?>
<opencv_storage>
<cascade>
  <stageType>BOOST</stageType>
  <featureType>HAAR</featureType>
  <height>25</height>
  <width>25</width>
  <stageParams>
    <boostType>GAB</boostType>
    <minHitRate>9.9000000953674316e-01</minHitRate>
    <maxFalseAlarm>4.0000000596046448e-01</maxFalseAlarm>
    <weightTrimRate>9.4999999999999996e-01</weightTrimRate>
    <maxDepth>1</maxDepth>
    <maxWeakCount>100</maxWeakCount></stageParams>
  <featureParams>
    <maxCatCount>0</maxCatCount>
    <featSize>1</featSize>
    <mode>ALL</mode></featureParams>
  <stageNum>20</stageNum>
  <stages>
    <!-- stage 0 -->
    <_>
      <maxWeakCount>9</maxWeakCount>
      <stageThreshold>-1.6952937841415405e+00</stageThreshold>
      <weakClassifiers>
        <_>
          <internalNodes>
            0 -1 194 -5.5044731125235558e-03</internalNodes>
          <leafValues>
            4.9907234311103821e-01 -6.0020190477371216e-01</leafValues></_>
        <_>
          <internalNodes>
            0 -1 452 6.1381673440337181e-03</internalNodes>
          <leafValues>
            -3.4363639354705811e-01 6.3222557306289673e-01</leafValues></_>
        <_>
          <internalNodes>
            0 -1 115 -7.2047435678541660e-03</internalNodes>
          <leafValues>
            6.4217442274093628e-01 -3.0428081750869751e-01</leafValues></_>
        <_>
          <internalNodes>
            0 -1 97 -2.7022100985050201e-03</internalNodes>
          <leafValues>
            6.4494282007217407e-01 -2.6018601655960083e-01</leafValues></_>
        <_>
          <internalNodes>
            0 -1 89 6.2109422869980335e-03</internalNodes>
          <leafValues>
            -1.8622227013111115e-01 7.5037807226181030e-01</leafValues></_>
        <_>
          <internalNodes>
            0 -1 140 1.5841811895370483e-02</internalNodes>
          <leafValues>
            -1.5147623419761658e-01 8.1869959831237793e-01</leafValues></_>
        <_>
          <internalNodes>
            0 -1 59 4.7828406095504761e-03</internalNodes>
          <leafValues>
            -2.4835199117660522e-01 5.7060688734054565e-01</leafValues></_>
        <_>
          <internalNodes>
            0 -1 371 -3.8790078833699226e-03</internalNodes>
          <leafValues>
            5.5908983945846558e-01 -2.2721333801746368e-01</leafValues></_>
        <_>
          <internalNodes>
            0 -1 24 -3.3478965051472187e-03</internalNodes>
          <leafValues>
            4.6504217386245728e-01 -3.1032520532608032e-01</leafValues></_></weakClassifiers></_>
    <!-- stage 1 -->
    <_>
      <maxWeakCount>15</maxWeakCount>
      <stageThreshold>-1.6549035310745239e+00</stageThreshold>
      <weakClassifiers>
        <_>
          <internalNodes>
            0 -1 266 7.7372463420033455e-03</internalNodes>
          <leafValues>
            -5.6517511606216431e-01 5.2155172824859619e-01</leafValues></_>
        <_>
          <internalNodes>
            0 -1 391 -9.7899856045842171e-03</internalNodes>
          <leafValues>
            6.1535471677780151e-01 -2.6877328753471375e-01</leafValues></_>
        <_>
          <internalNodes>
            0 -1 82 1.3142252573743463e-03</internalNodes>
          <leafValues>
            -2.2054916620254517e-01 6.3456869125366211e-01</leafValues></_>
        <_>
          <internalNodes>
            0 -1 439 9.1049112379550934e-03</internalNodes>
          <leafValues>
            -1.4720159769058228e-01 7.5920253992080688e-01</leafValues></_>
        <_>
          <internalNodes>
            0 -1 208 -4.1606929153203964e-03</internalNodes>
          <leafValues>
            5.0943642854690552e-01 -2.0606778562068939e-01</leafValues></_>
        <_>
          <internalNodes>
            0 -1 434 -2.1381867118179798e-03</internalNodes>
          <leafValues>
            5.3149509429931641e-01 -1.8447346985340118e-01</leafValues></_>
        <_>
          <internalNodes>
            0 -1 440 -2.3886959534138441e-03</internalNodes>
          <leafValues>
            4.5594072341918945e-01 -2.2963015735149384e-01</leafValues></_>
        <_>
          <internalNodes>
            0 -1 332 1.0025729425251484e-03</internalNodes>
          <leafValues>
            -1.5869632363319397e-01 5.6884610652923584e-01</leafValues></_>
        <_>
          <internalNodes>
            0 -1 436 -6.1317980289459229e-03</internalNodes>
          <leafValues>
            4.5793306827545166e-01 -2.1429449319839478e-01</leafValues></_>
        <_>
          <internalNodes>
            0 -1 185 -2.6094950735569000e-03</internalNodes>
          <leafValues>
            4.7440642118453979e-01 -2.0344930887222290e-01</leafValues></_>
        <_>
          <internalNodes>
            0 -1 92 1.6285654157400131e-02</internalNodes>
          <leafValues>
            -9.0447753667831421e-02 7.1253174543380737e-01</leafValues></_>
        <_>
          <internalNodes>
            0 -1 138 -3.2452850136905909e-03</internalNodes>
          <leafValues>
            4.7093656659126282e-01 -2.2026565670967102e-01</leafValues></_>
        <_>
          <internalNodes>
            0 -1 57 3.0328296124935150e-03</internalNodes>
          <leafValues>
            -2.0713655650615692e-01 4.6897375583648682e-01</leafValues></_>
        <_>
          <internalNodes>
            0 -1 229 -4.4373236596584320e-03</internalNodes>
          <leafValues>
            5.3945928812026978e-01 -1.6385100781917572e-01</leafValues></_>
        <_>
          <internalNodes>
            0 -1 170 1.2798940762877464e-02</internalNodes>
          <leafValues>
            -1.2121197581291199e-01 6.7094773054122925e-01</leafValues></_></weakClassifiers></_>
    <!-- stage 2 -->
    <_>
      <maxWeakCount>20</maxWeakCount>
      <stageThreshold>-1.2801111936569214e+00</stageThreshold>
      <weakClassifiers>
        <_>
          <internalNodes>
            0 -1 361 -5.1083797588944435e-03</internalNodes>
          <leafValues>
            3.9203354716300964e-01 -5.4185020923614502e-01</leafValues></_>
        <_>
          <internalNodes>
            0 -1 20 -1.3629453256726265e-02</internalNodes>
          <leafValues>
            5.0608509778976440e-01 -2.8899106383323669e-01</leafValues></_>
        <_>
          <internalNodes>
            0 -1 226 5.8500603772699833e-03</internalNodes>
          <leafValues>
            -2.0347058773040771e-01 5.2555322647094727e-01</leafValues></_>
        <_>
          <internalNodes>
            0 -1 125 1.9064784049987793e-02</internalNodes>
          <leafValues>
            -1.0498090833425522e-01 7.0166069269180298e-01</leafValues></_>
        <_>
          <internalNodes>
            0 -1 403 -1.8087404314428568e-03</internalNodes>
          <leafValues>
            6.3508993387222290e-01 -1.3571082055568695e-01</leafValues></_>
        <_>
          <internalNodes>
            0 -1 304 -3.8889802992343903e-02</internalNodes>
          <leafValues>
            5.7481348514556885e-01 -1.2726934254169464e-01</leafValues></_>
        <_>
          <internalNodes>
            0 -1 123 -1.1890919879078865e-02</internalNodes>
          <leafValues>
            5.6630504131317139e-01 -1.2783600389957428e-01</leafValues></_>
        <_>
          <internalNodes>
            0 -1 32 -4.6210191212594509e-03</internalNodes>
          <leafValues>
            4.8196065425872803e-01 -1.5054638683795929e-01</leafValues></_>
        <_>
          <internalNodes>
            0 -1 320 5.2259132266044617e-02</internalNodes>
          <leafValues>
            -1.0496214777231216e-01 5.6622004508972168e-01</leafValues></_>
        <_>
          <internalNodes>
            0 -1 333 1.1824602261185646e-03</internalNodes>
          <leafValues>
            -1.7571930587291718e-01 3.9215970039367676e-01</leafValues></_>
        <_>
          <internalNodes>
            0 -1 395 -6.4629167318344116e-03</internalNodes>
          <leafValues>
            5.2449542284011841e-01 -1.2178512662649155e-01</leafValues></_>
        <_>
          <internalNodes>
            0 -1 379 -1.1184817180037498e-02</internalNodes>
          <leafValues>
            4.8230713605880737e-01 -1.4092803001403809e-01</leafValues></_>
        <_>
          <internalNodes>
            0 -1 351 1.2094072997570038e-02</internalNodes>
          <leafValues>
            -9.8543733358383179e-02 5.1632201671600342e-01</leafValues></_>
        <_>
          <internalNodes>
            0 -1 114 -4.1083190590143204e-03</internalNodes>
          <leafValues>
            3.0986419320106506e-01 -2.0220410823822021e-01</leafValues></_>
        <_>
          <internalNodes>
            0 -1 76 -3.2736291177570820e-03</internalNodes>
          <leafValues>
            3.6605325341224670e-01 -1.5890736877918243e-01</leafValues></_>
        <_>
          <internalNodes>
            0 -1 116 1.0192003101110458e-02</internalNodes>
          <leafValues>
            -1.1440961062908173e-01 5.7586336135864258e-01</leafValues></_>
        <_>
          <internalNodes>
            0 -1 422 4.7509865835309029e-03</internalNodes>
          <leafValues>
            1.0155545175075531e-01 -6.8070650100708008e-01</leafValues></_>
        <_>
          <internalNodes>
            0 -1 177 5.3126368671655655e-02</internalNodes>
          <leafValues>
            8.1198148429393768e-02 -6.3481432199478149e-01</leafValues></_>
        <_>
          <internalNodes>
            0 -1 353 -7.5728110969066620e-03</internalNodes>
          <leafValues>
            3.8840520381927490e-01 -1.6577096283435822e-01</leafValues></_>
        <_>
          <internalNodes>
            0 -1 264 -2.7325113769620657e-03</internalNodes>
          <leafValues>
            3.4590867161750793e-01 -1.8036116659641266e-01</leafValues></_></weakClassifiers></_>
    <!-- stage 3 -->
    <_>
      <maxWeakCount>21</maxWeakCount>
      <stageThreshold>-1.2615311145782471e+00</stageThreshold>
      <weakClassifiers>
        <_>
          <internalNodes>
            0 -1 232 8.6151532828807831e-02</internalNodes>
          <leafValues>
            -5.2492946386337280e-01 4.9746191501617432e-01</leafValues></_>
        <_>
          <internalNodes>
            0 -1 163 -2.9612611979246140e-02</internalNodes>
          <leafValues>
            5.6264811754226685e-01 -2.1811854839324951e-01</leafValues></_>
        <_>
          <internalNodes>
            0 -1 446 -2.9029964935034513e-04</internalNodes>
          <leafValues>
            -5.2040839195251465e-01 1.6946239769458771e-01</leafValues></_>
        <_>
          <internalNodes>
            0 -1 453 7.3919803835451603e-03</internalNodes>
          <leafValues>
            -1.9151833653450012e-01 4.6749481558799744e-01</leafValues></_>
        <_>
          <internalNodes>
            0 -1 446 1.0812285472638905e-04</internalNodes>
          <leafValues>
            2.2396804392337799e-01 -3.1688389182090759e-01</leafValues></_>
        <_>
          <internalNodes>
            0 -1 172 1.2851906940340996e-02</internalNodes>
          <leafValues>
            -1.6169968247413635e-01 4.1923984885215759e-01</leafValues></_>
        <_>
          <internalNodes>
            0 -1 404 -2.6067942380905151e-03</internalNodes>
          <leafValues>
            -4.8194777965545654e-01 1.3786166906356812e-01</leafValues></_>
        <_>
          <internalNodes>
            0 -1 152 1.7866199836134911e-02</internalNodes>
          <leafValues>
            1.1256207525730133e-01 -5.6671249866485596e-01</leafValues></_>
        <_>
          <internalNodes>
            0 -1 86 -6.6713867709040642e-03</internalNodes>
          <leafValues>
            -3.2243984937667847e-01 1.9903138279914856e-01</leafValues></_>
        <_>
          <internalNodes>
            0 -1 447 -7.0488527417182922e-03</internalNodes>
          <leafValues>
            4.5644953846931458e-01 -1.4599649608135223e-01</leafValues></_>
        <_>
          <internalNodes>
            0 -1 120 1.3054103590548038e-02</internalNodes>
          <leafValues>
            -1.2795081734657288e-01 4.8100742697715759e-01</leafValues></_>
        <_>
          <internalNodes>
            0 -1 254 -1.4964872971177101e-03</internalNodes>
          <leafValues>
            -4.1709637641906738e-01 1.4578892290592194e-01</leafValues></_>
        <_>
          <internalNodes>
            0 -1 253 3.9582732133567333e-03</internalNodes>
          <leafValues>
            1.0261195898056030e-01 -7.1708160638809204e-01</leafValues></_>
        <_>
          <internalNodes>
            0 -1 33 1.4372398145496845e-03</internalNodes>
          <leafValues>
            5.8958984911441803e-02 -6.9480901956558228e-01</leafValues></_>
        <_>
          <internalNodes>
            0 -1 464 -4.6742446720600128e-03</internalNodes>
          <leafValues>
            -5.3763890266418457e-01 9.7054079174995422e-02</leafValues></_>
        <_>
          <internalNodes>
            0 -1 457 -1.1052198708057404e-02</internalNodes>
          <leafValues>
            4.9379515647888184e-01 -1.2858189642429352e-01</leafValues></_>
        <_>
          <internalNodes>
            0 -1 407 -7.9600894823670387e-03</internalNodes>
          <leafValues>
            3.6034572124481201e-01 -1.6411255300045013e-01</leafValues></_>
        <_>
          <internalNodes>
            0 -1 419 6.2708032783120871e-04</internalNodes>
          <leafValues>
            1.4041890203952789e-01 -4.3549659848213196e-01</leafValues></_>
        <_>
          <internalNodes>
            0 -1 205 7.1771959774196148e-03</internalNodes>
          <leafValues>
            -1.0234723985195160e-01 6.0204052925109863e-01</leafValues></_>
        <_>
          <internalNodes>
            0 -1 209 1.7357619944959879e-03</internalNodes>
          <leafValues>
            1.0085421800613403e-01 -6.2770295143127441e-01</leafValues></_>
        <_>
          <internalNodes>
            0 -1 161 -1.1720813810825348e-02</internalNodes>
          <leafValues>
            4.9327221512794495e-01 -1.3139811158180237e-01</leafValues></_></weakClassifiers></_>
    <!-- stage 4 -->
    <_>
      <maxWeakCount>24</maxWeakCount>
      <stageThreshold>-1.2807264328002930e+00</stageThreshold>
      <weakClassifiers>
        <_>
          <internalNodes>
            0 -1 228 -4.0033325552940369e-02</internalNodes>
          <leafValues>
            3.6383441090583801e-01 -5.2741390466690063e-01</leafValues></_>
        <_>
          <internalNodes>
            0 -1 330 -1.2108081951737404e-02</internalNodes>
          <leafValues>
            5.9108978509902954e-01 -1.7265595495700836e-01</leafValues></_>
        <_>
          <internalNodes>
            0 -1 165 2.0355897024273872e-02</internalNodes>
          <leafValues>
            -1.2888644635677338e-01 6.8513607978820801e-01</leafValues></_>
        <_>
          <internalNodes>
            0 -1 450 -5.3120520897209644e-03</internalNodes>
          <leafValues>
            3.5145670175552368e-01 -1.6797025501728058e-01</leafValues></_>
        <_>
          <internalNodes>
            0 -1 7 3.0804954469203949e-02</internalNodes>
          <leafValues>
            -1.3023844361305237e-01 5.0147217512130737e-01</leafValues></_>
        <_>
          <internalNodes>
            0 -1 448 1.9269651966169477e-04</internalNodes>
          <leafValues>
            -2.0470073819160461e-01 2.7345073223114014e-01</leafValues></_>
        <_>
          <internalNodes>
            0 -1 348 -2.5877572596073151e-02</internalNodes>
          <leafValues>
            4.8572790622711182e-01 -1.1396665871143341e-01</leafValues></_>
        <_>
          <internalNodes>
            0 -1 329 2.4364786222577095e-02</internalNodes>
          <leafValues>
            9.9433705210685730e-02 -6.6697221994400024e-01</leafValues></_>
        <_>
          <internalNodes>
            0 -1 397 -3.5185093292966485e-04</internalNodes>
          <leafValues>
            -4.6411487460136414e-01 1.3270711898803711e-01</leafValues></_>
        <_>
          <internalNodes>
            0 -1 405 -4.5320042409002781e-03</internalNodes>
          <leafValues>
            -6.9576710462570190e-01 7.8405022621154785e-02</leafValues></_>
        <_>
          <internalNodes>
            0 -1 273 -1.5412148088216782e-02</internalNodes>
          <leafValues>
            -5.1599901914596558e-01 1.0358570516109467e-01</leafValues></_>
        <_>
          <internalNodes>
            0 -1 195 -1.2784029357135296e-02</internalNodes>
          <leafValues>
            4.4533878564834595e-01 -1.1560060083866119e-01</leafValues></_>
        <_>
          <internalNodes>
            0 -1 294 -1.1359707452356815e-02</internalNodes>
          <leafValues>
            3.7081822752952576e-01 -1.5110354125499725e-01</leafValues></_>
        <_>
          <internalNodes>
            0 -1 218 -3.0903384322300553e-04</internalNodes>
          <leafValues>
            2.3343339562416077e-01 -2.2697316110134125e-01</leafValues></_>
        <_>
          <internalNodes>
            0 -1 178 -1.6351241618394852e-02</internalNodes>
          <leafValues>
            -6.7837631702423096e-01 8.6249202489852905e-02</leafValues></_>
        <_>
          <internalNodes>
            0 -1 58 1.3095658505335450e-04</internalNodes>
          <leafValues>
            1.3935022056102753e-01 -3.3421701192855835e-01</leafValues></_>
        <_>
          <internalNodes>
            0 -1 158 -6.5079298801720142e-03</internalNodes>
          <leafValues>
            4.3651404976844788e-01 -1.2367834895849228e-01</leafValues></_>
        <_>
          <internalNodes>
            0 -1 105 6.9739064201712608e-03</internalNodes>
          <leafValues>
            9.2862799763679504e-02 -5.7126444578170776e-01</leafValues></_>
        <_>
          <internalNodes>
            0 -1 188 -5.3928038105368614e-03</internalNodes>
          <leafValues>
            -5.3701281547546387e-01 8.5187822580337524e-02</leafValues></_>
        <_>
          <internalNodes>
            0 -1 61 -6.8881317973136902e-02</internalNodes>
          <leafValues>
            4.9539211392402649e-01 -1.0739883780479431e-01</leafValues></_>
        <_>
          <internalNodes>
            0 -1 153 6.6066406667232513e-02</internalNodes>
          <leafValues>
            -1.1073771119117737e-01 4.3719106912612915e-01</leafValues></_>
        <_>
          <internalNodes>
            0 -1 217 -6.8899676203727722e-02</internalNodes>
          <leafValues>
            3.6487409472465515e-01 -1.7272533476352692e-01</leafValues></_>
        <_>
          <internalNodes>
            0 -1 408 7.7932735439389944e-04</internalNodes>
          <leafValues>
            -1.7856760323047638e-01 3.3257269859313965e-01</leafValues></_>
        <_>
          <internalNodes>
            0 -1 231 -2.7315903455018997e-02</internalNodes>
          <leafValues>
            4.4486454129219055e-01 -1.2961724400520325e-01</leafValues></_></weakClassifiers></_>
    <!-- stage 5 -->
    <_>
      <maxWeakCount>27</maxWeakCount>
      <stageThreshold>-1.2106075286865234e+00</stageThreshold>
      <weakClassifiers>
        <_>
          <internalNodes>
            0 -1 159 2.1790735423564911e-02</internalNodes>
          <leafValues>
            -5.0936329364776611e-01 4.3750000000000000e-01</leafValues></_>
        <_>
          <internalNodes>
            0 -1 360 -2.7825254946947098e-03</internalNodes>
          <leafValues>
            5.0757110118865967e-01 -2.2311623394489288e-01</leafValues></_>
        <_>
          <internalNodes>
            0 -1 144 -1.3993156142532825e-02</internalNodes>
          <leafValues>
            5.5311268568038940e-01 -1.6956123709678650e-01</leafValues></_>
        <_>
          <internalNodes>
            0 -1 120 1.6572173684835434e-02</internalNodes>
          <leafValues>
            -9.8615750670433044e-02 6.7024153470993042e-01</leafValues></_>
        <_>
          <internalNodes>
            0 -1 389 1.1366792023181915e-02</internalNodes>
          <leafValues>
            -1.3649216294288635e-01 5.1455396413803101e-01</leafValues></_>
        <_>
          <internalNodes>
            0 -1 456 -4.4930651783943176e-03</internalNodes>
          <leafValues>
            6.2403130531311035e-01 -1.0417168587446213e-01</leafValues></_>
        <_>
          <internalNodes>
            0 -1 130 -1.0739263892173767e-01</internalNodes>
          <leafValues>
            6.3033527135848999e-01 -8.5115946829319000e-02</leafValues></_>
        <_>
          <internalNodes>
            0 -1 154 3.2215729355812073e-02</internalNodes>
          <leafValues>
            -1.4022809267044067e-01 4.7438257932662964e-01</leafValues></_>
        <_>
          <internalNodes>
            0 -1 407 -9.5880655571818352e-03</internalNodes>
          <leafValues>
            3.7977662682533264e-01 -1.5638546645641327e-01</leafValues></_>
        <_>
          <internalNodes>
            0 -1 365 6.9685198832303286e-04</internalNodes>
          <leafValues>
            -1.6024942696094513e-01 3.6439150571823120e-01</leafValues></_>
        <_>
          <internalNodes>
            0 -1 203 1.3534599915146828e-02</internalNodes>
          <leafValues>
            -1.0485011339187622e-01 5.2802383899688721e-01</leafValues></_>
        <_>
          <internalNodes>
            0 -1 139 -6.2095457687973976e-03</internalNodes>
          <leafValues>
            4.2424541711807251e-01 -1.0317173600196838e-01</leafValues></_>
        <_>
          <internalNodes>
            0 -1 27 -2.9715255368500948e-03</internalNodes>
          <leafValues>
            4.1911897063255310e-01 -1.4523331820964813e-01</leafValues></_>
        <_>
          <internalNodes>
            0 -1 22 3.6201174370944500e-03</internalNodes>
          <leafValues>
            -1.4223419129848480e-01 4.1646322607994080e-01</leafValues></_>
        <_>
          <internalNodes>
            0 -1 34 -2.9373713769018650e-03</internalNodes>
          <leafValues>
            2.6357698440551758e-01 -1.7702825367450714e-01</leafValues></_>
        <_>
          <internalNodes>
            0 -1 343 4.0161412209272385e-02</internalNodes>
          <leafValues>
            -1.1031259596347809e-01 4.9540236592292786e-01</leafValues></_>
        <_>
          <internalNodes>
            0 -1 376 -2.2016367875039577e-03</internalNodes>
          <leafValues>
            4.0419572591781616e-01 -1.2883448600769043e-01</leafValues></_>
        <_>
          <internalNodes>
            0 -1 331 6.3800113275647163e-04</internalNodes>
          <leafValues>
            -1.8186156451702118e-01 2.5830003619194031e-01</leafValues></_>
        <_>
          <internalNodes>
            0 -1 186 -1.3286736793816090e-03</internalNodes>
          <leafValues>
            2.7670270204544067e-01 -1.6776296496391296e-01</leafValues></_>
        <_>
          <internalNodes>
            0 -1 115 2.1246416494250298e-02</internalNodes>
          <leafValues>
            -6.1914596706628799e-02 7.1758663654327393e-01</leafValues></_>
        <_>
          <internalNodes>
            0 -1 53 -1.0485317325219512e-03</internalNodes>
          <leafValues>
            2.9460743069648743e-01 -1.6961066424846649e-01</leafValues></_>
        <_>
          <internalNodes>
            0 -1 367 8.2011045888066292e-03</internalNodes>
          <leafValues>
            -1.1354130506515503e-01 4.1184002161026001e-01</leafValues></_>
        <_>
          <internalNodes>
            0 -1 307 5.4316115565598011e-03</internalNodes>
          <leafValues>
            7.0465222001075745e-02 -7.1855175495147705e-01</leafValues></_>
        <_>
          <internalNodes>
            0 -1 83 -5.6583824334666133e-04</internalNodes>
          <leafValues>
            2.7693411707878113e-01 -1.8438468873500824e-01</leafValues></_>
        <_>
          <internalNodes>
            0 -1 168 3.0209408141672611e-03</internalNodes>
          <leafValues>
            1.0139752179384232e-01 -4.8450228571891785e-01</leafValues></_>
        <_>
          <internalNodes>
            0 -1 12 1.3843599008396268e-03</internalNodes>
          <leafValues>
            -1.7581897974014282e-01 2.6519566774368286e-01</leafValues></_>
        <_>
          <internalNodes>
            0 -1 339 2.2862090263515711e-03</internalNodes>
          <leafValues>
            -1.4091923832893372e-01 3.2863217592239380e-01</leafValues></_></weakClassifiers></_>
    <!-- stage 6 -->
    <_>
      <maxWeakCount>14</maxWeakCount>
      <stageThreshold>-1.3880593776702881e+00</stageThreshold>
      <weakClassifiers>
        <_>
          <internalNodes>
            0 -1 21 -2.4178382009267807e-02</internalNodes>
          <leafValues>
            6.8571430444717407e-01 -5.3456223011016846e-01</leafValues></_>
        <_>
          <internalNodes>
            0 -1 85 -2.8483878821134567e-02</internalNodes>
          <leafValues>
            5.4696863889694214e-01 -2.5905865430831909e-01</leafValues></_>
        <_>
          <internalNodes>
            0 -1 454 7.1727344766259193e-03</internalNodes>
          <leafValues>
            -2.1732109785079956e-01 4.7618898749351501e-01</leafValues></_>
        <_>
          <internalNodes>
            0 -1 221 6.9464636035263538e-03</internalNodes>
          <leafValues>
            1.3812635838985443e-01 -7.0948833227157593e-01</leafValues></_>
        <_>
          <internalNodes>
            0 -1 113 -3.0522551387548447e-02</internalNodes>
          <leafValues>
            -6.0808467864990234e-01 1.7510303854942322e-01</leafValues></_>
        <_>
          <internalNodes>
            0 -1 369 7.8835552558302879e-03</internalNodes>
          <leafValues>
            1.2809506058692932e-01 -6.9427311420440674e-01</leafValues></_>
        <_>
          <internalNodes>
            0 -1 24 -1.2597998604178429e-02</internalNodes>
          <leafValues>
            5.7564765214920044e-01 -1.8554542958736420e-01</leafValues></_>
        <_>
          <internalNodes>
            0 -1 469 8.3411962259560823e-04</internalNodes>
          <leafValues>
            1.8973483145236969e-01 -4.7267681360244751e-01</leafValues></_>
        <_>
          <internalNodes>
            0 -1 8 4.9323998391628265e-02</internalNodes>
          <leafValues>
            -1.2279970943927765e-01 6.6289353370666504e-01</leafValues></_>
        <_>
          <internalNodes>
            0 -1 418 -6.1645451933145523e-04</internalNodes>
          <leafValues>
            -4.6744254231452942e-01 2.0255410671234131e-01</leafValues></_>
        <_>
          <internalNodes>
            0 -1 445 -2.5886495131999254e-04</internalNodes>
          <leafValues>
            -3.8893759250640869e-01 2.4297159910202026e-01</leafValues></_>
        <_>
          <internalNodes>
            0 -1 359 -8.5570160299539566e-03</internalNodes>
          <leafValues>
            6.0444414615631104e-01 -1.4928460121154785e-01</leafValues></_>
        <_>
          <internalNodes>
            0 -1 421 -3.9873184869065881e-04</internalNodes>
          <leafValues>
            -4.3710523843765259e-01 1.9900667667388916e-01</leafValues></_>
        <_>
          <internalNodes>
            0 -1 410 3.8134604692459106e-03</internalNodes>
          <leafValues>
            1.0682648420333862e-01 -6.9589751958847046e-01</leafValues></_></weakClassifiers></_>
    <!-- stage 7 -->
    <_>
      <maxWeakCount>17</maxWeakCount>
      <stageThreshold>-1.2205650806427002e+00</stageThreshold>
      <weakClassifiers>
        <_>
          <internalNodes>
            0 -1 200 4.7919405624270439e-03</internalNodes>
          <leafValues>
            -5.0877195596694946e-01 5.1412427425384521e-01</leafValues></_>
        <_>
          <internalNodes>
            0 -1 403 -1.9280894193798304e-03</internalNodes>
          <leafValues>
            6.8369686603546143e-01 -1.9499295949935913e-01</leafValues></_>
        <_>
          <internalNodes>
            0 -1 358 -5.2480231970548630e-03</internalNodes>
          <leafValues>
            5.3841120004653931e-01 -1.5005213022232056e-01</leafValues></_>
        <_>
          <internalNodes>
            0 -1 442 2.2443940397351980e-03</internalNodes>
          <leafValues>
            -1.3127245008945465e-01 7.5500482320785522e-01</leafValues></_>
        <_>
          <internalNodes>
            0 -1 63 -1.3453611172735691e-03</internalNodes>
          <leafValues>
            5.6376016139984131e-01 -1.0784476995468140e-01</leafValues></_>
        <_>
          <internalNodes>
            0 -1 26 1.1006336659193039e-02</internalNodes>
          <leafValues>
            1.0954115539789200e-01 -6.3467574119567871e-01</leafValues></_>
        <_>
          <internalNodes>
            0 -1 25 -9.6704997122287750e-03</internalNodes>
          <leafValues>
            -5.5015599727630615e-01 1.6950947046279907e-01</leafValues></_>
        <_>
          <internalNodes>
            0 -1 377 -3.2905934494920075e-04</internalNodes>
          <leafValues>
            -4.1240969300270081e-01 1.5937085449695587e-01</leafValues></_>
        <_>
          <internalNodes>
            0 -1 54 -5.8418225497007370e-02</internalNodes>
          <leafValues>
            6.5171432495117188e-01 -1.1461180448532104e-01</leafValues></_>
        <_>
          <internalNodes>
            0 -1 308 -4.4091144809499383e-04</internalNodes>
          <leafValues>
            -3.8625034689903259e-01 1.6736833751201630e-01</leafValues></_>
        <_>
          <internalNodes>
            0 -1 146 3.7862181663513184e-02</internalNodes>
          <leafValues>
            1.1602486670017242e-01 -6.6976445913314819e-01</leafValues></_>
        <_>
          <internalNodes>
            0 -1 401 6.5504917874932289e-03</internalNodes>
          <leafValues>
            8.6029097437858582e-02 -6.4037954807281494e-01</leafValues></_>
        <_>
          <internalNodes>
            0 -1 28 -9.3673877418041229e-03</internalNodes>
          <leafValues>
            5.3018254041671753e-01 -1.2647715210914612e-01</leafValues></_>
        <_>
          <internalNodes>
            0 -1 310 -1.1684071272611618e-02</internalNodes>
          <leafValues>
            3.4864121675491333e-01 -1.8683621287345886e-01</leafValues></_>
        <_>
          <internalNodes>
            0 -1 137 6.8890184164047241e-02</internalNodes>
          <leafValues>
            -8.7267190217971802e-02 7.1287560462951660e-01</leafValues></_>
        <_>
          <internalNodes>
            0 -1 380 1.6381785273551941e-02</internalNodes>
          <leafValues>
            -8.9158184826374054e-02 5.6518912315368652e-01</leafValues></_>
        <_>
          <internalNodes>
            0 -1 124 2.6611248031258583e-03</internalNodes>
          <leafValues>
            -8.0812148749828339e-02 7.3585897684097290e-01</leafValues></_></weakClassifiers></_>
    <!-- stage 8 -->
    <_>
      <maxWeakCount>27</maxWeakCount>
      <stageThreshold>-1.2746692895889282e+00</stageThreshold>
      <weakClassifiers>
        <_>
          <internalNodes>
            0 -1 282 1.8245529383420944e-02</internalNodes>
          <leafValues>
            -4.7415730357170105e-01 4.5762711763381958e-01</leafValues></_>
        <_>
          <internalNodes>
            0 -1 202 1.7337396740913391e-02</internalNodes>
          <leafValues>
            -1.9000473618507385e-01 4.8552119731903076e-01</leafValues></_>
        <_>
          <internalNodes>
            0 -1 117 1.8922539427876472e-02</internalNodes>
          <leafValues>
            -1.1922822892665863e-01 6.4228761196136475e-01</leafValues></_>
        <_>
          <internalNodes>
            0 -1 459 -8.1189824268221855e-03</internalNodes>
          <leafValues>
            4.3318888545036316e-01 -1.3902226090431213e-01</leafValues></_>
        <_>
          <internalNodes>
            0 -1 403 -3.1995254103094339e-03</internalNodes>
          <leafValues>
            6.8106293678283691e-01 -7.0099711418151855e-02</leafValues></_>
        <_>
          <internalNodes>
            0 -1 423 -1.2830318883061409e-02</internalNodes>
          <leafValues>
            -8.6351680755615234e-01 6.7118540406227112e-02</leafValues></_>
        <_>
          <internalNodes>
            0 -1 382 1.6657792031764984e-02</internalNodes>
          <leafValues>
            -9.3698211014270782e-02 5.4170745611190796e-01</leafValues></_>
        <_>
          <internalNodes>
            0 -1 131 -1.2763482332229614e-01</internalNodes>
          <leafValues>
            6.7046034336090088e-01 -7.4592798948287964e-02</leafValues></_>
        <_>
          <internalNodes>
            0 -1 386 -1.4225596096366644e-03</internalNodes>
          <leafValues>
            2.5927641987800598e-01 -2.0358371734619141e-01</leafValues></_>
        <_>
          <internalNodes>
            0 -1 182 5.7822119444608688e-02</internalNodes>
          <leafValues>
            -1.3497908413410187e-01 3.8575273752212524e-01</leafValues></_>
        <_>
          <internalNodes>
            0 -1 128 2.0352331921458244e-03</internalNodes>
          <leafValues>
            1.2987853586673737e-01 -4.4014734029769897e-01</leafValues></_>
        <_>
          <internalNodes>
            0 -1 83 -2.2421428002417088e-03</internalNodes>
          <leafValues>
            5.3346121311187744e-01 -8.1249661743640900e-02</leafValues></_>
        <_>
          <internalNodes>
            0 -1 409 5.0498127937316895e-02</internalNodes>
          <leafValues>
            -1.2685759365558624e-01 3.9209398627281189e-01</leafValues></_>
        <_>
          <internalNodes>
            0 -1 234 -3.7389266071841121e-04</internalNodes>
          <leafValues>
            -3.6378416419029236e-01 1.3094080984592438e-01</leafValues></_>
        <_>
          <internalNodes>
            0 -1 56 4.7004558145999908e-03</internalNodes>
          <leafValues>
            -1.7134241759777069e-01 2.9502171277999878e-01</leafValues></_>
        <_>
          <internalNodes>
            0 -1 430 4.3845763429999352e-03</internalNodes>
          <leafValues>
            7.5149893760681152e-02 -6.8016207218170166e-01</leafValues></_>
        <_>
          <internalNodes>
            0 -1 241 -4.4284902513027191e-02</internalNodes>
          <leafValues>
            -8.7117934226989746e-01 4.3922588229179382e-02</leafValues></_>
        <_>
          <internalNodes>
            0 -1 300 9.3844579532742500e-03</internalNodes>
          <leafValues>
            8.1322617828845978e-02 -5.0797152519226074e-01</leafValues></_>
        <_>
          <internalNodes>
            0 -1 246 5.4483272833749652e-04</internalNodes>
          <leafValues>
            -2.4482260644435883e-01 1.9490331411361694e-01</leafValues></_>
        <_>
          <internalNodes>
            0 -1 65 -3.8589924573898315e-02</internalNodes>
          <leafValues>
            -3.1367728114128113e-01 1.4277018606662750e-01</leafValues></_>
        <_>
          <internalNodes>
            0 -1 42 -2.8142038732767105e-02</internalNodes>
          <leafValues>
            5.1612555980682373e-01 -9.4665996730327606e-02</leafValues></_>
        <_>
          <internalNodes>
            0 -1 55 2.3365438391920179e-04</internalNodes>
          <leafValues>
            1.7196816205978394e-01 -2.8332504630088806e-01</leafValues></_>
        <_>
          <internalNodes>
            0 -1 23 -4.1162455454468727e-03</internalNodes>
          <leafValues>
            2.6312014460563660e-01 -1.9106987118721008e-01</leafValues></_>
        <_>
          <internalNodes>
            0 -1 94 -1.4633875340223312e-02</internalNodes>
          <leafValues>
            -5.1539134979248047e-01 1.0270731151103973e-01</leafValues></_>
        <_>
          <internalNodes>
            0 -1 119 6.0275271534919739e-03</internalNodes>
          <leafValues>
            7.3251619935035706e-02 -5.9588325023651123e-01</leafValues></_>
        <_>
          <internalNodes>
            0 -1 306 -3.8544475100934505e-03</internalNodes>
          <leafValues>
            -5.8521646261215210e-01 6.7589513957500458e-02</leafValues></_>
        <_>
          <internalNodes>
            0 -1 44 1.1736291926354170e-03</internalNodes>
          <leafValues>
            -1.3133691251277924e-01 3.6523556709289551e-01</leafValues></_></weakClassifiers></_>
    <!-- stage 9 -->
    <_>
      <maxWeakCount>28</maxWeakCount>
      <stageThreshold>-1.2753626108169556e+00</stageThreshold>
      <weakClassifiers>
        <_>
          <internalNodes>
            0 -1 282 2.2649116814136505e-02</internalNodes>
          <leafValues>
            -4.5383274555206299e-01 5.4464286565780640e-01</leafValues></_>
        <_>
          <internalNodes>
            0 -1 453 9.7637707367539406e-03</internalNodes>
          <leafValues>
            -2.1876484155654907e-01 3.9497539401054382e-01</leafValues></_>
        <_>
          <internalNodes>
            0 -1 48 -8.0351214855909348e-03</internalNodes>
          <leafValues>
            4.0082752704620361e-01 -1.4694997668266296e-01</leafValues></_>
        <_>
          <internalNodes>
            0 -1 293 2.4535747244954109e-02</internalNodes>
          <leafValues>
            -1.0007793456315994e-01 4.9589365720748901e-01</leafValues></_>
        <_>
          <internalNodes>
            0 -1 224 1.9919446203857660e-03</internalNodes>
          <leafValues>
            1.0376574844121933e-01 -5.2042680978775024e-01</leafValues></_>
        <_>
          <internalNodes>
            0 -1 388 3.1749033951200545e-05</internalNodes>
          <leafValues>
            -2.1038170158863068e-01 2.4308845400810242e-01</leafValues></_>
        <_>
          <internalNodes>
            0 -1 0 -2.6792462449520826e-04</internalNodes>
          <leafValues>
            -3.1933724880218506e-01 1.5991796553134918e-01</leafValues></_>
        <_>
          <internalNodes>
            0 -1 13 -3.4289799630641937e-02</internalNodes>
          <leafValues>
            5.4924070835113525e-01 -9.7935065627098083e-02</leafValues></_>
        <_>
          <internalNodes>
            0 -1 0 2.6082698605023324e-04</internalNodes>
          <leafValues>
            2.0491875708103180e-01 -2.8098663687705994e-01</leafValues></_>
        <_>
          <internalNodes>
            0 -1 437 1.9144900143146515e-02</internalNodes>
          <leafValues>
            -9.6044406294822693e-02 7.1846252679824829e-01</leafValues></_>
        <_>
          <internalNodes>
            0 -1 260 9.5803558360785246e-04</internalNodes>
          <leafValues>
            1.2595523893833160e-01 -4.3154627084732056e-01</leafValues></_>
        <_>
          <internalNodes>
            0 -1 62 1.6522967489436269e-03</internalNodes>
          <leafValues>
            -1.1971167474985123e-01 4.3404859304428101e-01</leafValues></_>
        <_>
          <internalNodes>
            0 -1 326 3.0459815752692521e-04</internalNodes>
          <leafValues>
            1.6312158107757568e-01 -3.1882184743881226e-01</leafValues></_>
        <_>
          <internalNodes>
            0 -1 235 1.1031865142285824e-03</internalNodes>
          <leafValues>
            1.0923676937818527e-01 -4.2415511608123779e-01</leafValues></_>
        <_>
          <internalNodes>
            0 -1 352 3.1659699743613601e-05</internalNodes>
          <leafValues>
            -2.3306649923324585e-01 2.0785820484161377e-01</leafValues></_>
        <_>
          <internalNodes>
            0 -1 406 5.8453865349292755e-03</internalNodes>
          <leafValues>
            7.8001849353313446e-02 -6.0543781518936157e-01</leafValues></_>
        <_>
          <internalNodes>
            0 -1 115 -1.2649012729525566e-02</internalNodes>
          <leafValues>
            3.5160866379737854e-01 -1.5067490935325623e-01</leafValues></_>
        <_>
          <internalNodes>
            0 -1 435 -4.4137081131339073e-03</internalNodes>
          <leafValues>
            2.9255661368370056e-01 -1.8772462010383606e-01</leafValues></_>
        <_>
          <internalNodes>
            0 -1 325 -3.9434587233699858e-04</internalNodes>
          <leafValues>
            -3.0213254690170288e-01 1.6579687595367432e-01</leafValues></_>
        <_>
          <internalNodes>
            0 -1 160 -1.2573325634002686e-01</internalNodes>
          <leafValues>
            5.5107027292251587e-01 -8.9879371225833893e-02</leafValues></_>
        <_>
          <internalNodes>
            0 -1 216 -1.6732601448893547e-02</internalNodes>
          <leafValues>
            -7.6177519559860229e-01 7.0219404995441437e-02</leafValues></_>
        <_>
          <internalNodes>
            0 -1 96 -1.7760081682354212e-03</internalNodes>
          <leafValues>
            2.4911907315254211e-01 -1.9045540690422058e-01</leafValues></_>
        <_>
          <internalNodes>
            0 -1 378 -3.1900240574032068e-03</internalNodes>
          <leafValues>
            5.3608751296997070e-01 -8.8234879076480865e-02</leafValues></_>
        <_>
          <internalNodes>
            0 -1 107 -8.6228949949145317e-03</internalNodes>
          <leafValues>
            -6.4365899562835693e-01 7.5069785118103027e-02</leafValues></_>
        <_>
          <internalNodes>
            0 -1 249 -4.9500301480293274e-02</internalNodes>
          <leafValues>
            5.3122949600219727e-01 -9.2155352234840393e-02</leafValues></_>
        <_>
          <internalNodes>
            0 -1 46 -8.0421305028721690e-04</internalNodes>
          <leafValues>
            3.1644073128700256e-01 -1.4060333371162415e-01</leafValues></_>
        <_>
          <internalNodes>
            0 -1 444 -1.1865303386002779e-03</internalNodes>
          <leafValues>
            -4.6808049082756042e-01 1.0658495128154755e-01</leafValues></_>
        <_>
          <internalNodes>
            0 -1 45 1.0967953503131866e-01</internalNodes>
          <leafValues>
            -7.0557191967964172e-02 6.8943166732788086e-01</leafValues></_></weakClassifiers></_>
    <!-- stage 10 -->
    <_>
      <maxWeakCount>32</maxWeakCount>
      <stageThreshold>-1.3278129100799561e+00</stageThreshold>
      <weakClassifiers>
        <_>
          <internalNodes>
            0 -1 373 9.3575241044163704e-03</internalNodes>
          <leafValues>
            -5.0024354457855225e-01 2.2912205755710602e-01</leafValues></_>
        <_>
          <internalNodes>
            0 -1 192 -4.2695343494415283e-02</internalNodes>
          <leafValues>
            3.4161555767059326e-01 -2.1778813004493713e-01</leafValues></_>
        <_>
          <internalNodes>
            0 -1 242 -2.0217243582010269e-03</internalNodes>
          <leafValues>
            4.7310352325439453e-01 -1.2389694899320602e-01</leafValues></_>
        <_>
          <internalNodes>
            0 -1 99 -2.3740353062748909e-03</internalNodes>
          <leafValues>
            4.3905591964721680e-01 -1.2708951532840729e-01</leafValues></_>
        <_>
          <internalNodes>
            0 -1 449 -1.7725714133121073e-04</internalNodes>
          <leafValues>
            -3.1819429993629456e-01 1.6881367564201355e-01</leafValues></_>
        <_>
          <internalNodes>
            0 -1 402 3.0792239704169333e-04</internalNodes>
          <leafValues>
            -1.4010314643383026e-01 3.0167606472969055e-01</leafValues></_>
        <_>
          <internalNodes>
            0 -1 15 1.9255477935075760e-02</internalNodes>
          <leafValues>
            -1.2823255360126495e-01 5.7181996107101440e-01</leafValues></_>
        <_>
          <internalNodes>
            0 -1 296 -2.9647271148860455e-03</internalNodes>
          <leafValues>
            3.0294868350028992e-01 -1.4534328877925873e-01</leafValues></_>
        <_>
          <internalNodes>
            0 -1 251 1.5420612180605531e-03</internalNodes>
          <leafValues>
            1.2862192094326019e-01 -4.6215888857841492e-01</leafValues></_>
        <_>
          <internalNodes>
            0 -1 321 2.7664525434374809e-02</internalNodes>
          <leafValues>
            -1.0551854223012924e-01 5.3587532043457031e-01</leafValues></_>
        <_>
          <internalNodes>
            0 -1 220 1.2144023552536964e-02</internalNodes>
          <leafValues>
            -9.0049281716346741e-02 5.5164849758148193e-01</leafValues></_>
        <_>
          <internalNodes>
            0 -1 171 -1.0765036568045616e-02</internalNodes>
          <leafValues>
            3.1745561957359314e-01 -1.3497906923294067e-01</leafValues></_>
        <_>
          <internalNodes>
            0 -1 426 1.7512720078229904e-02</internalNodes>
          <leafValues>
            -8.7923139333724976e-02 6.0938477516174316e-01</leafValues></_>
        <_>
          <internalNodes>
            0 -1 341 -7.8141778707504272e-02</internalNodes>
          <leafValues>
            3.9943796396255493e-01 -1.2458609789609909e-01</leafValues></_>
        <_>
          <internalNodes>
            0 -1 370 2.0939748734235764e-02</internalNodes>
          <leafValues>
            -1.0932072997093201e-01 4.3803593516349792e-01</leafValues></_>
        <_>
          <internalNodes>
            0 -1 298 3.5625264048576355e-02</internalNodes>
          <leafValues>
            5.5525012314319611e-02 -7.6490575075149536e-01</leafValues></_>
        <_>
          <internalNodes>
            0 -1 268 -6.3664308981969953e-04</internalNodes>
          <leafValues>
            2.6764941215515137e-01 -1.6351407766342163e-01</leafValues></_>
        <_>
          <internalNodes>
            0 -1 40 7.1062799543142319e-04</internalNodes>
          <leafValues>
            9.4301410019397736e-02 -4.6080231666564941e-01</leafValues></_>
        <_>
          <internalNodes>
            0 -1 109 -4.7065384685993195e-02</internalNodes>
          <leafValues>
            3.9797815680503845e-01 -1.1517379432916641e-01</leafValues></_>
        <_>
          <internalNodes>
            0 -1 126 -7.8005492687225342e-03</internalNodes>
          <leafValues>
            -5.7515650987625122e-01 7.7964633703231812e-02</leafValues></_>
        <_>
          <internalNodes>
            0 -1 204 -1.6876075416803360e-02</internalNodes>
          <leafValues>
            6.2187439203262329e-01 -7.7181756496429443e-02</leafValues></_>
        <_>
          <internalNodes>
            0 -1 49 1.4380446076393127e-01</internalNodes>
          <leafValues>
            6.7129410803318024e-02 -8.1725406646728516e-01</leafValues></_>
        <_>
          <internalNodes>
            0 -1 355 -1.1870897142216563e-03</internalNodes>
          <leafValues>
            2.1215450763702393e-01 -2.3448975384235382e-01</leafValues></_>
        <_>
          <internalNodes>
            0 -1 71 -2.2988682612776756e-03</internalNodes>
          <leafValues>
            3.6049520969390869e-01 -1.3712809979915619e-01</leafValues></_>
        <_>
          <internalNodes>
            0 -1 81 2.0641912706196308e-03</internalNodes>
          <leafValues>
            -1.0146620124578476e-01 4.6441397070884705e-01</leafValues></_>
        <_>
          <internalNodes>
            0 -1 67 -5.7615153491497040e-03</internalNodes>
          <leafValues>
            -4.8007583618164062e-01 9.7109749913215637e-02</leafValues></_>
        <_>
          <internalNodes>
            0 -1 323 3.5996693186461926e-03</internalNodes>
          <leafValues>
            7.1517832577228546e-02 -5.6854891777038574e-01</leafValues></_>
        <_>
          <internalNodes>
            0 -1 175 1.1792760342359543e-03</internalNodes>
          <leafValues>
            1.0459573566913605e-01 -4.0419003367424011e-01</leafValues></_>
        <_>
          <internalNodes>
            0 -1 90 1.1089655570685863e-02</internalNodes>
          <leafValues>
            -1.1673068255186081e-01 4.2003411054611206e-01</leafValues></_>
        <_>
          <internalNodes>
            0 -1 5 2.6979856193065643e-04</internalNodes>
          <leafValues>
            1.4240652322769165e-01 -3.5624974966049194e-01</leafValues></_>
        <_>
          <internalNodes>
            0 -1 255 4.7211766242980957e-02</internalNodes>
          <leafValues>
            -6.7388340830802917e-02 6.4394640922546387e-01</leafValues></_>
        <_>
          <internalNodes>
            0 -1 156 -2.4979149457067251e-03</internalNodes>
          <leafValues>
            -3.8968119025230408e-01 1.1974938958883286e-01</leafValues></_></weakClassifiers></_>
    <!-- stage 11 -->
    <_>
      <maxWeakCount>35</maxWeakCount>
      <stageThreshold>-1.1993712186813354e+00</stageThreshold>
      <weakClassifiers>
        <_>
          <internalNodes>
            0 -1 335 1.0280728340148926e-02</internalNodes>
          <leafValues>
            -4.8773583769798279e-01 2.8499999642372131e-01</leafValues></_>
        <_>
          <internalNodes>
            0 -1 142 2.6927176862955093e-02</internalNodes>
          <leafValues>
            -1.4519107341766357e-01 5.4442179203033447e-01</leafValues></_>
        <_>
          <internalNodes>
            0 -1 442 2.5802582968026400e-03</internalNodes>
          <leafValues>
            -1.0024245083332062e-01 6.1282336711883545e-01</leafValues></_>
        <_>
          <internalNodes>
            0 -1 14 -2.0063512027263641e-02</internalNodes>
          <leafValues>
            3.0822172760963440e-01 -1.4923550188541412e-01</leafValues></_>
        <_>
          <internalNodes>
            0 -1 233 1.3439138233661652e-01</internalNodes>
          <leafValues>
            -9.7264453768730164e-02 5.3732717037200928e-01</leafValues></_>
        <_>
          <internalNodes>
            0 -1 428 -1.2634100858122110e-03</internalNodes>
          <leafValues>
            3.7213096022605896e-01 -1.1159748584032059e-01</leafValues></_>
        <_>
          <internalNodes>
            0 -1 288 -5.6290067732334137e-04</internalNodes>
          <leafValues>
            -3.6894431710243225e-01 1.3399711251258850e-01</leafValues></_>
        <_>
          <internalNodes>
            0 -1 289 2.0417650230228901e-03</internalNodes>
          <leafValues>
            1.2495134770870209e-01 -4.2949080467224121e-01</leafValues></_>
        <_>
          <internalNodes>
            0 -1 412 9.8690371960401535e-03</internalNodes>
          <leafValues>
            -1.1360928416252136e-01 4.4073858857154846e-01</leafValues></_>
        <_>
          <internalNodes>
            0 -1 73 -1.3434834778308868e-02</internalNodes>
          <leafValues>
            4.8406046628952026e-01 -8.7993361055850983e-02</leafValues></_>
        <_>
          <internalNodes>
            0 -1 141 1.3259884435683489e-03</internalNodes>
          <leafValues>
            -1.1639637500047684e-01 3.1627014279365540e-01</leafValues></_>
        <_>
          <internalNodes>
            0 -1 169 -1.0551450774073601e-02</internalNodes>
          <leafValues>
            5.1999384164810181e-01 -9.7955793142318726e-02</leafValues></_>
        <_>
          <internalNodes>
            0 -1 190 1.0927025228738785e-02</internalNodes>
          <leafValues>
            6.8249948322772980e-02 -8.5258084535598755e-01</leafValues></_>
        <_>
          <internalNodes>
            0 -1 80 -1.3635166396852583e-05</internalNodes>
          <leafValues>
            1.8074110150337219e-01 -2.1964770555496216e-01</leafValues></_>
        <_>
          <internalNodes>
            0 -1 31 -2.2878742311149836e-03</internalNodes>
          <leafValues>
            2.3373331129550934e-01 -1.6453529894351959e-01</leafValues></_>
        <_>
          <internalNodes>
            0 -1 416 -1.8702168017625809e-04</internalNodes>
          <leafValues>
            -2.8598663210868835e-01 1.4389139413833618e-01</leafValues></_>
        <_>
          <internalNodes>
            0 -1 345 -7.0335704367607832e-04</internalNodes>
          <leafValues>
            2.9373767971992493e-01 -1.5147265791893005e-01</leafValues></_>
        <_>
          <internalNodes>
            0 -1 155 -9.3832872807979584e-03</internalNodes>
          <leafValues>
            -5.7542562484741211e-01 7.1054309606552124e-02</leafValues></_>
        <_>
          <internalNodes>
            0 -1 118 -4.4365637004375458e-03</internalNodes>
          <leafValues>
            -6.3005334138870239e-01 5.7450227439403534e-02</leafValues></_>
        <_>
          <internalNodes>
            0 -1 100 1.3413291890174150e-03</internalNodes>
          <leafValues>
            -1.1575277149677277e-01 4.0891462564468384e-01</leafValues></_>
        <_>
          <internalNodes>
            0 -1 460 -4.6260431408882141e-03</internalNodes>
          <leafValues>
            -5.9604150056838989e-01 7.2725288569927216e-02</leafValues></_>
        <_>
          <internalNodes>
            0 -1 135 4.0135089308023453e-02</internalNodes>
          <leafValues>
            -1.1779967695474625e-01 3.6701375246047974e-01</leafValues></_>
        <_>
          <internalNodes>
            0 -1 215 1.3907201355323195e-03</internalNodes>
          <leafValues>
            -1.3670794665813446e-01 2.9455727338790894e-01</leafValues></_>
        <_>
          <internalNodes>
            0 -1 36 3.8180287927389145e-02</internalNodes>
          <leafValues>
            -1.0268493741750717e-01 4.0602120757102966e-01</leafValues></_>
        <_>
          <internalNodes>
            0 -1 75 4.3232554162386805e-05</internalNodes>
          <leafValues>
            -2.0033070445060730e-01 2.0855548977851868e-01</leafValues></_>
        <_>
          <internalNodes>
            0 -1 267 -1.6123380511999130e-02</internalNodes>
          <leafValues>
            -6.4304101467132568e-01 6.2054686248302460e-02</leafValues></_>
        <_>
          <internalNodes>
            0 -1 344 -3.5995721817016602e-02</internalNodes>
          <leafValues>
            4.0412569046020508e-01 -1.1350239813327789e-01</leafValues></_>
        <_>
          <internalNodes>
            0 -1 340 2.6672808453440666e-02</internalNodes>
          <leafValues>
            5.0998244434595108e-02 -8.6818927526473999e-01</leafValues></_>
        <_>
          <internalNodes>
            0 -1 328 2.0671184174716473e-03</internalNodes>
          <leafValues>
            8.7011411786079407e-02 -4.0707430243492126e-01</leafValues></_>
        <_>
          <internalNodes>
            0 -1 384 -4.0827150223776698e-04</internalNodes>
          <leafValues>
            2.4776259064674377e-01 -1.7405030131340027e-01</leafValues></_>
        <_>
          <internalNodes>
            0 -1 207 -1.6871404368430376e-03</internalNodes>
          <leafValues>
            2.5676172971725464e-01 -1.7071807384490967e-01</leafValues></_>
        <_>
          <internalNodes>
            0 -1 19 9.7515545785427094e-03</internalNodes>
          <leafValues>
            -1.0408826917409897e-01 4.5049920678138733e-01</leafValues></_>
        <_>
          <internalNodes>
            0 -1 180 -5.6612081825733185e-03</internalNodes>
          <leafValues>
            -5.9191757440567017e-01 7.6351195573806763e-02</leafValues></_>
        <_>
          <internalNodes>
            0 -1 272 -8.2060936838388443e-03</internalNodes>
          <leafValues>
            6.0141539573669434e-01 -7.9177908599376678e-02</leafValues></_>
        <_>
          <internalNodes>
            0 -1 374 1.3136479537934065e-03</internalNodes>
          <leafValues>
            -1.5570484101772308e-01 2.5577640533447266e-01</leafValues></_></weakClassifiers></_>
    <!-- stage 12 -->
    <_>
      <maxWeakCount>30</maxWeakCount>
      <stageThreshold>-1.1899855136871338e+00</stageThreshold>
      <weakClassifiers>
        <_>
          <internalNodes>
            0 -1 261 1.2961518019437790e-02</internalNodes>
          <leafValues>
            -5.6117177009582520e-01 7.3170728981494904e-02</leafValues></_>
        <_>
          <internalNodes>
            0 -1 285 1.5645800158381462e-02</internalNodes>
          <leafValues>
            -1.1712512373924255e-01 8.6398690938949585e-01</leafValues></_>
        <_>
          <internalNodes>
            0 -1 68 -1.6180854290723801e-02</internalNodes>
          <leafValues>
            4.4837006926536560e-01 -1.1786959320306778e-01</leafValues></_>
        <_>
          <internalNodes>
            0 -1 1 3.2882892992347479e-04</internalNodes>
          <leafValues>
            1.2792657315731049e-01 -3.6348921060562134e-01</leafValues></_>
        <_>
          <internalNodes>
            0 -1 372 -7.6279249042272568e-03</internalNodes>
          <leafValues>
            4.3975105881690979e-01 -9.8509669303894043e-02</leafValues></_>
        <_>
          <internalNodes>
            0 -1 301 -7.6315121259540319e-04</internalNodes>
          <leafValues>
            3.3699712157249451e-01 -1.5060977637767792e-01</leafValues></_>
        <_>
          <internalNodes>
            0 -1 179 9.5441900193691254e-03</internalNodes>
          <leafValues>
            1.3332115113735199e-01 -3.9642551541328430e-01</leafValues></_>
        <_>
          <internalNodes>
            0 -1 2 2.5663593783974648e-02</internalNodes>
          <leafValues>
            -1.1273896694183350e-01 4.1861733794212341e-01</leafValues></_>
        <_>
          <internalNodes>
            0 -1 143 -3.7495967000722885e-02</internalNodes>
          <leafValues>
            -4.9219033122062683e-01 1.0889202356338501e-01</leafValues></_>
        <_>
          <internalNodes>
            0 -1 60 2.0539570599794388e-02</internalNodes>
          <leafValues>
            -1.1461779475212097e-01 4.8181444406509399e-01</leafValues></_>
        <_>
          <internalNodes>
            0 -1 69 1.3702156022191048e-02</internalNodes>
          <leafValues>
            -7.0339880883693695e-02 5.2677053213119507e-01</leafValues></_>
        <_>
          <internalNodes>
            0 -1 443 2.9479502700269222e-05</internalNodes>
          <leafValues>
            -2.1259684860706329e-01 1.9889502227306366e-01</leafValues></_>
        <_>
          <internalNodes>
            0 -1 66 -4.1197864338755608e-03</internalNodes>
          <leafValues>
            2.9696300625801086e-01 -1.5899439156055450e-01</leafValues></_>
        <_>
          <internalNodes>
            0 -1 342 -7.8309429809451103e-03</internalNodes>
          <leafValues>
            -6.5194809436798096e-01 7.5005859136581421e-02</leafValues></_>
        <_>
          <internalNodes>
            0 -1 411 -1.2865080498158932e-03</internalNodes>
          <leafValues>
            2.1382246911525726e-01 -1.9830721616744995e-01</leafValues></_>
        <_>
          <internalNodes>
            0 -1 461 3.3891359344124794e-03</internalNodes>
          <leafValues>
            -1.3685959577560425e-01 2.8337061405181885e-01</leafValues></_>
        <_>
          <internalNodes>
            0 -1 259 9.5820939168334007e-04</internalNodes>
          <leafValues>
            9.1797254979610443e-02 -5.0528252124786377e-01</leafValues></_>
        <_>
          <internalNodes>
            0 -1 463 4.3519367463886738e-03</internalNodes>
          <leafValues>
            5.5794022977352142e-02 -5.6590670347213745e-01</leafValues></_>
        <_>
          <internalNodes>
            0 -1 387 -8.7692709639668465e-03</internalNodes>
          <leafValues>
            3.7871316075325012e-01 -1.0828939825296402e-01</leafValues></_>
        <_>
          <internalNodes>
            0 -1 129 -4.2921267449855804e-02</internalNodes>
          <leafValues>
            4.1535076498985291e-01 -9.5855735242366791e-02</leafValues></_>
        <_>
          <internalNodes>
            0 -1 110 3.5490717738866806e-02</internalNodes>
          <leafValues>
            -1.1839567869901657e-01 3.7626570463180542e-01</leafValues></_>
        <_>
          <internalNodes>
            0 -1 83 -1.4596604742109776e-03</internalNodes>
          <leafValues>
            3.2402786612510681e-01 -1.2761954963207245e-01</leafValues></_>
        <_>
          <internalNodes>
            0 -1 439 1.4054182916879654e-02</internalNodes>
          <leafValues>
            -8.6626924574375153e-02 4.7749540209770203e-01</leafValues></_>
        <_>
          <internalNodes>
            0 -1 398 1.5880532562732697e-02</internalNodes>
          <leafValues>
            8.1105731427669525e-02 -5.0449293851852417e-01</leafValues></_>
        <_>
          <internalNodes>
            0 -1 225 -8.9422822929918766e-04</internalNodes>
          <leafValues>
            -3.8828650116920471e-01 1.0833601653575897e-01</leafValues></_>
        <_>
          <internalNodes>
            0 -1 354 3.7289690226316452e-05</internalNodes>
          <leafValues>
            -2.0900616049766541e-01 1.8464088439941406e-01</leafValues></_>
        <_>
          <internalNodes>
            0 -1 431 -2.7692201547324657e-03</internalNodes>
          <leafValues>
            2.2277684509754181e-01 -1.9235573709011078e-01</leafValues></_>
        <_>
          <internalNodes>
            0 -1 198 5.1878567319363356e-04</internalNodes>
          <leafValues>
            1.2114788591861725e-01 -3.4056901931762695e-01</leafValues></_>
        <_>
          <internalNodes>
            0 -1 269 -6.9819740019738674e-04</internalNodes>
          <leafValues>
            2.3161546885967255e-01 -1.8918588757514954e-01</leafValues></_>
        <_>
          <internalNodes>
            0 -1 429 4.5318430056795478e-04</internalNodes>
          <leafValues>
            -1.6366212069988251e-01 2.5381451845169067e-01</leafValues></_></weakClassifiers></_>
    <!-- stage 13 -->
    <_>
      <maxWeakCount>34</maxWeakCount>
      <stageThreshold>-1.1892205476760864e+00</stageThreshold>
      <weakClassifiers>
        <_>
          <internalNodes>
            0 -1 347 6.9705145433545113e-03</internalNodes>
          <leafValues>
            -4.7810217738151550e-01 3.9024388790130615e-01</leafValues></_>
        <_>
          <internalNodes>
            0 -1 274 1.8081940710544586e-02</internalNodes>
          <leafValues>
            -1.1893125623464584e-01 7.2925907373428345e-01</leafValues></_>
        <_>
          <internalNodes>
            0 -1 276 -8.9251995086669922e-03</internalNodes>
          <leafValues>
            4.5858857035636902e-01 -1.0391525924205780e-01</leafValues></_>
        <_>
          <internalNodes>
            0 -1 162 2.3915592581033707e-02</internalNodes>
          <leafValues>
            -9.7242161631584167e-02 5.5678856372833252e-01</leafValues></_>
        <_>
          <internalNodes>
            0 -1 134 -9.1481376439332962e-03</internalNodes>
          <leafValues>
            -5.4417389631271362e-01 1.0113795101642609e-01</leafValues></_>
        <_>
          <internalNodes>
            0 -1 150 -5.9446622617542744e-04</internalNodes>
          <leafValues>
            2.2492434084415436e-01 -1.8561840057373047e-01</leafValues></_>
        <_>
          <internalNodes>
            0 -1 309 -5.0129613373428583e-04</internalNodes>
          <leafValues>
            -3.4124314785003662e-01 1.2920065224170685e-01</leafValues></_>
        <_>
          <internalNodes>
            0 -1 17 -2.1162591874599457e-02</internalNodes>
          <leafValues>
            2.4215464293956757e-01 -1.7416019737720490e-01</leafValues></_>
        <_>
          <internalNodes>
            0 -1 413 -5.6283292360603809e-03</internalNodes>
          <leafValues>
            -6.9733881950378418e-01 7.0485882461071014e-02</leafValues></_>
        <_>
          <internalNodes>
            0 -1 462 1.5951879322528839e-03</internalNodes>
          <leafValues>
            -1.0517853498458862e-01 3.7677365541458130e-01</leafValues></_>
        <_>
          <internalNodes>
            0 -1 315 7.7026642858982086e-02</internalNodes>
          <leafValues>
            6.1420314013957977e-02 -6.8450605869293213e-01</leafValues></_>
        <_>
          <internalNodes>
            0 -1 446 -2.9574584914371371e-04</internalNodes>
          <leafValues>
            -3.8188254833221436e-01 1.0094135999679565e-01</leafValues></_>
        <_>
          <internalNodes>
            0 -1 425 -7.4901350308209658e-04</internalNodes>
          <leafValues>
            2.1934260427951813e-01 -1.9523103535175323e-01</leafValues></_>
        <_>
          <internalNodes>
            0 -1 356 -4.6337491949088871e-04</internalNodes>
          <leafValues>
            1.7387939989566803e-01 -2.4194748699665070e-01</leafValues></_>
        <_>
          <internalNodes>
            0 -1 101 1.4843355864286423e-02</internalNodes>
          <leafValues>
            -9.6156239509582520e-02 4.4227626919746399e-01</leafValues></_>
        <_>
          <internalNodes>
            0 -1 70 -1.3389036757871509e-03</internalNodes>
          <leafValues>
            -2.9020738601684570e-01 1.3575172424316406e-01</leafValues></_>
        <_>
          <internalNodes>
            0 -1 93 2.5336173176765442e-01</internalNodes>
          <leafValues>
            -5.9974927455186844e-02 6.2714546918869019e-01</leafValues></_>
        <_>
          <internalNodes>
            0 -1 212 1.3384474441409111e-03</internalNodes>
          <leafValues>
            -1.5281565487384796e-01 2.6274809241294861e-01</leafValues></_>
        <_>
          <internalNodes>
            0 -1 432 -9.8894280381500721e-04</internalNodes>
          <leafValues>
            2.0866738259792328e-01 -2.0581641793251038e-01</leafValues></_>
        <_>
          <internalNodes>
            0 -1 35 1.0679797269403934e-02</internalNodes>
          <leafValues>
            8.8054224848747253e-02 -4.9763074517250061e-01</leafValues></_>
        <_>
          <internalNodes>
            0 -1 230 7.9326219856739044e-03</internalNodes>
          <leafValues>
            5.2596423774957657e-02 -6.5116959810256958e-01</leafValues></_>
        <_>
          <internalNodes>
            0 -1 176 4.7504431568086147e-03</internalNodes>
          <leafValues>
            7.7682383358478546e-02 -4.8444071412086487e-01</leafValues></_>
        <_>
          <internalNodes>
            0 -1 16 8.2646720111370087e-03</internalNodes>
          <leafValues>
            6.4298443496227264e-02 -5.3699040412902832e-01</leafValues></_>
        <_>
          <internalNodes>
            0 -1 279 -1.2784961145371199e-03</internalNodes>
          <leafValues>
            2.2155766189098358e-01 -1.8385979533195496e-01</leafValues></_>
        <_>
          <internalNodes>
            0 -1 311 2.3040955420583487e-04</internalNodes>
          <leafValues>
            1.3875989615917206e-01 -2.6575648784637451e-01</leafValues></_>
        <_>
          <internalNodes>
            0 -1 392 4.1409170080441982e-05</internalNodes>
          <leafValues>
            -2.2032427787780762e-01 1.7645332217216492e-01</leafValues></_>
        <_>
          <internalNodes>
            0 -1 383 2.6081953197717667e-02</internalNodes>
          <leafValues>
            -5.4728794842958450e-02 7.5515854358673096e-01</leafValues></_>
        <_>
          <internalNodes>
            0 -1 455 -2.3158332332968712e-03</internalNodes>
          <leafValues>
            -5.2048903703689575e-01 8.5558295249938965e-02</leafValues></_>
        <_>
          <internalNodes>
            0 -1 84 -1.4022189192473888e-02</internalNodes>
          <leafValues>
            -8.1599599123001099e-01 4.0774468332529068e-02</leafValues></_>
        <_>
          <internalNodes>
            0 -1 112 -1.0899620130658150e-02</internalNodes>
          <leafValues>
            -3.9084479212760925e-01 9.3302868306636810e-02</leafValues></_>
        <_>
          <internalNodes>
            0 -1 393 1.6980749787762761e-03</internalNodes>
          <leafValues>
            -1.2939955294132233e-01 3.0115184187889099e-01</leafValues></_>
        <_>
          <internalNodes>
            0 -1 210 3.0428156256675720e-02</internalNodes>
          <leafValues>
            8.9166201651096344e-02 -4.5925128459930420e-01</leafValues></_>
        <_>
          <internalNodes>
            0 -1 424 3.3375935163348913e-04</internalNodes>
          <leafValues>
            -1.5935312211513519e-01 2.2197583317756653e-01</leafValues></_>
        <_>
          <internalNodes>
            0 -1 122 -7.9822903499007225e-03</internalNodes>
          <leafValues>
            3.3817821741104126e-01 -1.0770480334758759e-01</leafValues></_></weakClassifiers></_>
    <!-- stage 14 -->
    <_>
      <maxWeakCount>32</maxWeakCount>
      <stageThreshold>-1.1212608814239502e+00</stageThreshold>
      <weakClassifiers>
        <_>
          <internalNodes>
            0 -1 330 -1.1852258816361427e-02</internalNodes>
          <leafValues>
            1.8762089312076569e-01 -5.0773841142654419e-01</leafValues></_>
        <_>
          <internalNodes>
            0 -1 284 -2.1351605653762817e-02</internalNodes>
          <leafValues>
            2.5531724095344543e-01 -2.4651837348937988e-01</leafValues></_>
        <_>
          <internalNodes>
            0 -1 29 -1.0114577598869801e-02</internalNodes>
          <leafValues>
            3.8862711191177368e-01 -1.1814348399639130e-01</leafValues></_>
        <_>
          <internalNodes>
            0 -1 72 -8.9678703807294369e-04</internalNodes>
          <leafValues>
            2.8572949767112732e-01 -1.5978676080703735e-01</leafValues></_>
        <_>
          <internalNodes>
            0 -1 174 1.0643496364355087e-01</internalNodes>
          <leafValues>
            -9.1350279748439789e-02 5.0044673681259155e-01</leafValues></_>
        <_>
          <internalNodes>
            0 -1 381 7.2288378141820431e-03</internalNodes>
          <leafValues>
            -1.6151647269725800e-01 2.9567259550094604e-01</leafValues></_>
        <_>
          <internalNodes>
            0 -1 189 3.0551657080650330e-02</internalNodes>
          <leafValues>
            -6.3997343182563782e-02 6.6263204813003540e-01</leafValues></_>
        <_>
          <internalNodes>
            0 -1 313 -1.0042687505483627e-01</internalNodes>
          <leafValues>
            6.5368705987930298e-01 -5.5017482489347458e-02</leafValues></_>
        <_>
          <internalNodes>
            0 -1 243 1.0011922568082809e-03</internalNodes>
          <leafValues>
            -6.1872471123933792e-02 4.1589236259460449e-01</leafValues></_>
        <_>
          <internalNodes>
            0 -1 95 2.4862056598067284e-02</internalNodes>
          <leafValues>
            -9.6243858337402344e-02 5.1879978179931641e-01</leafValues></_>
        <_>
          <internalNodes>
            0 -1 157 5.4705878719687462e-03</internalNodes>
          <leafValues>
            5.9749286621809006e-02 -7.0810806751251221e-01</leafValues></_>
        <_>
          <internalNodes>
            0 -1 471 9.8812168289441615e-05</internalNodes>
          <leafValues>
            -2.0736765861511230e-01 2.0684866607189178e-01</leafValues></_>
        <_>
          <internalNodes>
            0 -1 247 -2.2083565127104521e-03</internalNodes>
          <leafValues>
            2.8624337911605835e-01 -1.5179987251758575e-01</leafValues></_>
        <_>
          <internalNodes>
            0 -1 106 6.6419770009815693e-03</internalNodes>
          <leafValues>
            7.8943856060504913e-02 -6.4774453639984131e-01</leafValues></_>
        <_>
          <internalNodes>
            0 -1 91 -1.1279687285423279e-02</internalNodes>
          <leafValues>
            4.1839006543159485e-01 -1.1429559439420700e-01</leafValues></_>
        <_>
          <internalNodes>
            0 -1 145 -1.8038228154182434e-03</internalNodes>
          <leafValues>
            2.6952105760574341e-01 -1.4815773069858551e-01</leafValues></_>
        <_>
          <internalNodes>
            0 -1 187 -2.7623069472610950e-03</internalNodes>
          <leafValues>
            3.5304969549179077e-01 -1.2523669004440308e-01</leafValues></_>
        <_>
          <internalNodes>
            0 -1 258 1.8686223775148392e-02</internalNodes>
          <leafValues>
            9.0949729084968567e-02 -5.1052743196487427e-01</leafValues></_>
        <_>
          <internalNodes>
            0 -1 79 2.1634550648741424e-04</internalNodes>
          <leafValues>
            -1.8776117265224457e-01 2.2103561460971832e-01</leafValues></_>
        <_>
          <internalNodes>
            0 -1 88 2.4223759770393372e-02</internalNodes>
          <leafValues>
            -8.3083085715770721e-02 5.1340824365615845e-01</leafValues></_>
        <_>
          <internalNodes>
            0 -1 414 5.0236063543707132e-05</internalNodes>
          <leafValues>
            -2.0516774058341980e-01 1.9603885710239410e-01</leafValues></_>
        <_>
          <internalNodes>
            0 -1 324 -9.3670602655038238e-04</internalNodes>
          <leafValues>
            -4.5564076304435730e-01 1.0199731588363647e-01</leafValues></_>
        <_>
          <internalNodes>
            0 -1 191 -1.7854075878858566e-02</internalNodes>
          <leafValues>
            2.5296634435653687e-01 -1.6436666250228882e-01</leafValues></_>
        <_>
          <internalNodes>
            0 -1 281 5.7460763491690159e-04</internalNodes>
          <leafValues>
            1.1602089554071426e-01 -4.2798861861228943e-01</leafValues></_>
        <_>
          <internalNodes>
            0 -1 338 -2.4548594374209642e-03</internalNodes>
          <leafValues>
            2.9198077321052551e-01 -1.5483741462230682e-01</leafValues></_>
        <_>
          <internalNodes>
            0 -1 173 -2.2012423723936081e-02</internalNodes>
          <leafValues>
            -7.1789288520812988e-01 5.6422546505928040e-02</leafValues></_>
        <_>
          <internalNodes>
            0 -1 11 -1.5006937086582184e-02</internalNodes>
          <leafValues>
            5.4877603054046631e-01 -8.5605263710021973e-02</leafValues></_>
        <_>
          <internalNodes>
            0 -1 362 3.8563206791877747e-02</internalNodes>
          <leafValues>
            -7.1865163743495941e-02 5.0377082824707031e-01</leafValues></_>
        <_>
          <internalNodes>
            0 -1 239 -3.3474646508693695e-02</internalNodes>
          <leafValues>
            -5.3089094161987305e-01 8.6554162204265594e-02</leafValues></_>
        <_>
          <internalNodes>
            0 -1 51 -8.9528498938307166e-04</internalNodes>
          <leafValues>
            1.8082444369792938e-01 -2.3489518463611603e-01</leafValues></_>
        <_>
          <internalNodes>
            0 -1 346 3.0262120999395847e-03</internalNodes>
          <leafValues>
            -1.2155561894178391e-01 3.4200254082679749e-01</leafValues></_>
        <_>
          <internalNodes>
            0 -1 78 -1.1828292626887560e-03</internalNodes>
          <leafValues>
            2.0026451349258423e-01 -1.9084396958351135e-01</leafValues></_></weakClassifiers></_>
    <!-- stage 15 -->
    <_>
      <maxWeakCount>33</maxWeakCount>
      <stageThreshold>-1.2906254529953003e+00</stageThreshold>
      <weakClassifiers>
        <_>
          <internalNodes>
            0 -1 271 9.2427898198366165e-03</internalNodes>
          <leafValues>
            -4.3548387289047241e-01 6.4634144306182861e-01</leafValues></_>
        <_>
          <internalNodes>
            0 -1 265 -3.8581357803195715e-03</internalNodes>
          <leafValues>
            4.1483691334724426e-01 -1.6665714979171753e-01</leafValues></_>
        <_>
          <internalNodes>
            0 -1 219 1.5604275278747082e-02</internalNodes>
          <leafValues>
            1.0935942828655243e-01 -6.0503882169723511e-01</leafValues></_>
        <_>
          <internalNodes>
            0 -1 245 9.0385571820661426e-04</internalNodes>
          <leafValues>
            -1.4452296495437622e-01 3.0081507563591003e-01</leafValues></_>
        <_>
          <internalNodes>
            0 -1 465 3.2995641231536865e-04</internalNodes>
          <leafValues>
            1.2954737246036530e-01 -3.3765986561775208e-01</leafValues></_>
        <_>
          <internalNodes>
            0 -1 465 -1.4728670066688210e-04</internalNodes>
          <leafValues>
            -3.8003247976303101e-01 1.6749076545238495e-01</leafValues></_>
        <_>
          <internalNodes>
            0 -1 123 -1.8238553777337074e-02</internalNodes>
          <leafValues>
            5.4252892732620239e-01 -7.4156396090984344e-02</leafValues></_>
        <_>
          <internalNodes>
            0 -1 30 3.4370624925941229e-03</internalNodes>
          <leafValues>
            8.6158812046051025e-02 -5.2901071310043335e-01</leafValues></_>
        <_>
          <internalNodes>
            0 -1 292 -1.1508930474519730e-02</internalNodes>
          <leafValues>
            -6.2276953458786011e-01 8.0567039549350739e-02</leafValues></_>
        <_>
          <internalNodes>
            0 -1 214 -2.2325610741972923e-02</internalNodes>
          <leafValues>
            4.1338515281677246e-01 -1.2517488002777100e-01</leafValues></_>
        <_>
          <internalNodes>
            0 -1 103 8.9360494166612625e-03</internalNodes>
          <leafValues>
            -7.6862804591655731e-02 6.0977369546890259e-01</leafValues></_>
        <_>
          <internalNodes>
            0 -1 238 9.0899895876646042e-03</internalNodes>
          <leafValues>
            1.3500244915485382e-01 -3.3776527643203735e-01</leafValues></_>
        <_>
          <internalNodes>
            0 -1 147 6.1269458383321762e-03</internalNodes>
          <leafValues>
            -1.5135264396667480e-01 3.4042787551879883e-01</leafValues></_>
        <_>
          <internalNodes>
            0 -1 151 -1.6039036214351654e-02</internalNodes>
          <leafValues>
            -5.1324391365051270e-01 9.4116300344467163e-02</leafValues></_>
        <_>
          <internalNodes>
            0 -1 433 -4.9999896436929703e-03</internalNodes>
          <leafValues>
            2.4445363879203796e-01 -1.7906065285205841e-01</leafValues></_>
        <_>
          <internalNodes>
            0 -1 39 -5.5009708739817142e-04</internalNodes>
          <leafValues>
            2.7261817455291748e-01 -1.5551647543907166e-01</leafValues></_>
        <_>
          <internalNodes>
            0 -1 184 -5.7825911790132523e-03</internalNodes>
          <leafValues>
            -5.8814352750778198e-01 6.8901866674423218e-02</leafValues></_>
        <_>
          <internalNodes>
            0 -1 98 4.9962452612817287e-04</internalNodes>
          <leafValues>
            -1.9517120718955994e-01 2.2261448204517365e-01</leafValues></_>
        <_>
          <internalNodes>
            0 -1 41 -7.0103304460644722e-04</internalNodes>
          <leafValues>
            -3.2864508032798767e-01 1.4202785491943359e-01</leafValues></_>
        <_>
          <internalNodes>
            0 -1 222 4.1034489870071411e-02</internalNodes>
          <leafValues>
            6.3553959131240845e-02 -6.7325735092163086e-01</leafValues></_>
        <_>
          <internalNodes>
            0 -1 164 -1.6880013048648834e-02</internalNodes>
          <leafValues>
            4.3314552307128906e-01 -1.1190138757228851e-01</leafValues></_>
        <_>
          <internalNodes>
            0 -1 390 7.4076829478144646e-03</internalNodes>
          <leafValues>
            7.7874369919300079e-02 -6.4500850439071655e-01</leafValues></_>
        <_>
          <internalNodes>
            0 -1 350 4.6912129968404770e-02</internalNodes>
          <leafValues>
            -8.1135883927345276e-02 6.2428784370422363e-01</leafValues></_>
        <_>
          <internalNodes>
            0 -1 223 -3.5034876782447100e-03</internalNodes>
          <leafValues>
            3.4775769710540771e-01 -1.2125956267118454e-01</leafValues></_>
        <_>
          <internalNodes>
            0 -1 37 -2.3177587427198887e-03</internalNodes>
          <leafValues>
            -4.0011414885520935e-01 1.1158565431833267e-01</leafValues></_>
        <_>
          <internalNodes>
            0 -1 52 2.3799936752766371e-03</internalNodes>
          <leafValues>
            7.3345661163330078e-02 -5.6495225429534912e-01</leafValues></_>
        <_>
          <internalNodes>
            0 -1 334 -2.7045741444453597e-04</internalNodes>
          <leafValues>
            2.6075616478919983e-01 -1.6398605704307556e-01</leafValues></_>
        <_>
          <internalNodes>
            0 -1 400 -6.6674132831394672e-03</internalNodes>
          <leafValues>
            -6.2401604652404785e-01 7.1942478418350220e-02</leafValues></_>
        <_>
          <internalNodes>
            0 -1 451 9.7691430710256100e-04</internalNodes>
          <leafValues>
            -1.3358570635318756e-01 3.4303840994834900e-01</leafValues></_>
        <_>
          <internalNodes>
            0 -1 38 1.0264454409480095e-02</internalNodes>
          <leafValues>
            -1.2841208279132843e-01 3.3418539166450500e-01</leafValues></_>
        <_>
          <internalNodes>
            0 -1 358 -1.1263887863606215e-03</internalNodes>
          <leafValues>
            2.0281344652175903e-01 -2.2301721572875977e-01</leafValues></_>
        <_>
          <internalNodes>
            0 -1 77 -1.0936120816040784e-04</internalNodes>
          <leafValues>
            -2.7692392468452454e-01 1.6560661792755127e-01</leafValues></_>
        <_>
          <internalNodes>
            0 -1 111 -2.3464975878596306e-02</internalNodes>
          <leafValues>
            3.7347587943077087e-01 -1.2481029331684113e-01</leafValues></_></weakClassifiers></_>
    <!-- stage 16 -->
    <_>
      <maxWeakCount>34</maxWeakCount>
      <stageThreshold>-1.2421214580535889e+00</stageThreshold>
      <weakClassifiers>
        <_>
          <internalNodes>
            0 -1 257 4.3659433722496033e-02</internalNodes>
          <leafValues>
            -5.3776776790618896e-01 4.5576408505439758e-02</leafValues></_>
        <_>
          <internalNodes>
            0 -1 317 -4.7068973071873188e-04</internalNodes>
          <leafValues>
            2.0076547563076019e-01 -2.9311063885688782e-01</leafValues></_>
        <_>
          <internalNodes>
            0 -1 244 3.1701398256700486e-05</internalNodes>
          <leafValues>
            -2.8601664304733276e-01 1.7100407183170319e-01</leafValues></_>
        <_>
          <internalNodes>
            0 -1 314 -1.0890165576711297e-03</internalNodes>
          <leafValues>
            3.6996188759803772e-01 -1.1569397151470184e-01</leafValues></_>
        <_>
          <internalNodes>
            0 -1 250 -1.6766758635640144e-03</internalNodes>
          <leafValues>
            -2.6982241868972778e-01 1.9091974198818207e-01</leafValues></_>
        <_>
          <internalNodes>
            0 -1 385 2.1254414692521095e-02</internalNodes>
          <leafValues>
            -9.0633943676948547e-02 5.2936118841171265e-01</leafValues></_>
        <_>
          <internalNodes>
            0 -1 95 1.0390842333436012e-02</internalNodes>
          <leafValues>
            -1.4720034599304199e-01 2.9333323240280151e-01</leafValues></_>
        <_>
          <internalNodes>
            0 -1 121 -7.4524227529764175e-03</internalNodes>
          <leafValues>
            3.7727013230323792e-01 -1.1501773446798325e-01</leafValues></_>
        <_>
          <internalNodes>
            0 -1 280 3.4551136195659637e-02</internalNodes>
          <leafValues>
            -5.6627795100212097e-02 6.8705439567565918e-01</leafValues></_>
        <_>
          <internalNodes>
            0 -1 62 3.0987693462520838e-03</internalNodes>
          <leafValues>
            -8.1408202648162842e-02 5.1658105850219727e-01</leafValues></_>
        <_>
          <internalNodes>
            0 -1 227 -2.9782711062580347e-03</internalNodes>
          <leafValues>
            -6.0754746198654175e-01 6.8681210279464722e-02</leafValues></_>
        <_>
          <internalNodes>
            0 -1 467 3.1468240194953978e-05</internalNodes>
          <leafValues>
            -2.0157712697982788e-01 2.0215827226638794e-01</leafValues></_>
        <_>
          <internalNodes>
            0 -1 363 2.8650136664509773e-03</internalNodes>
          <leafValues>
            6.5726667642593384e-02 -5.0624537467956543e-01</leafValues></_>
        <_>
          <internalNodes>
            0 -1 149 -1.2055628001689911e-02</internalNodes>
          <leafValues>
            4.9016845226287842e-01 -8.4182590246200562e-02</leafValues></_>
        <_>
          <internalNodes>
            0 -1 312 3.4936182200908661e-02</internalNodes>
          <leafValues>
            6.9748170673847198e-02 -6.1397492885589600e-01</leafValues></_>
        <_>
          <internalNodes>
            0 -1 297 -3.1964692752808332e-03</internalNodes>
          <leafValues>
            3.2610237598419189e-01 -1.2946714460849762e-01</leafValues></_>
        <_>
          <internalNodes>
            0 -1 364 -4.1201040148735046e-03</internalNodes>
          <leafValues>
            -5.9590905904769897e-01 6.9074071943759918e-02</leafValues></_>
        <_>
          <internalNodes>
            0 -1 337 -1.9695316441357136e-03</internalNodes>
          <leafValues>
            4.9604970216751099e-01 -9.7910217940807343e-02</leafValues></_>
        <_>
          <internalNodes>
            0 -1 441 -1.4607156626880169e-03</internalNodes>
          <leafValues>
            3.1668233871459961e-01 -1.3401733338832855e-01</leafValues></_>
        <_>
          <internalNodes>
            0 -1 286 1.4249945525079966e-04</internalNodes>
          <leafValues>
            -1.8513059616088867e-01 2.3602645099163055e-01</leafValues></_>
        <_>
          <internalNodes>
            0 -1 18 -5.9146694839000702e-03</internalNodes>
          <leafValues>
            -6.3881003856658936e-01 6.4514771103858948e-02</leafValues></_>
        <_>
          <internalNodes>
            0 -1 193 -1.7268978059291840e-02</internalNodes>
          <leafValues>
            3.2399937510490417e-01 -1.2845341861248016e-01</leafValues></_>
        <_>
          <internalNodes>
            0 -1 213 3.2062637619674206e-03</internalNodes>
          <leafValues>
            -1.2603233754634857e-01 3.2582738995552063e-01</leafValues></_>
        <_>
          <internalNodes>
            0 -1 55 -3.6597629077732563e-03</internalNodes>
          <leafValues>
            -5.6806308031082153e-01 6.9863036274909973e-02</leafValues></_>
        <_>
          <internalNodes>
            0 -1 132 2.2049695253372192e-01</internalNodes>
          <leafValues>
            4.3404612690210342e-02 -7.9049390554428101e-01</leafValues></_>
        <_>
          <internalNodes>
            0 -1 104 2.9476941563189030e-04</internalNodes>
          <leafValues>
            1.0839919000864029e-01 -3.2853525876998901e-01</leafValues></_>
        <_>
          <internalNodes>
            0 -1 197 4.0352838113903999e-03</internalNodes>
          <leafValues>
            -1.5788674354553223e-01 2.6193386316299438e-01</leafValues></_>
        <_>
          <internalNodes>
            0 -1 275 -3.5011858562938869e-04</internalNodes>
          <leafValues>
            -3.3027708530426025e-01 1.2161587923765182e-01</leafValues></_>
        <_>
          <internalNodes>
            0 -1 470 -2.7573169209063053e-03</internalNodes>
          <leafValues>
            -6.7465102672576904e-01 5.6509982794523239e-02</leafValues></_>
        <_>
          <internalNodes>
            0 -1 319 2.0785115659236908e-02</internalNodes>
          <leafValues>
            -9.9110543727874756e-02 4.1058641672134399e-01</leafValues></_>
        <_>
          <internalNodes>
            0 -1 468 1.6344881150871515e-03</internalNodes>
          <leafValues>
            6.1182107776403427e-02 -6.6448193788528442e-01</leafValues></_>
        <_>
          <internalNodes>
            0 -1 420 -3.3198230084963143e-04</internalNodes>
          <leafValues>
            -3.0603355169296265e-01 1.2551406025886536e-01</leafValues></_>
        <_>
          <internalNodes>
            0 -1 3 3.6913111805915833e-02</internalNodes>
          <leafValues>
            -7.2328291833400726e-02 5.8317130804061890e-01</leafValues></_>
        <_>
          <internalNodes>
            0 -1 10 3.3089471980929375e-03</internalNodes>
          <leafValues>
            -1.3137380778789520e-01 3.2571712136268616e-01</leafValues></_></weakClassifiers></_>
    <!-- stage 17 -->
    <_>
      <maxWeakCount>32</maxWeakCount>
      <stageThreshold>-1.2888084650039673e+00</stageThreshold>
      <weakClassifiers>
        <_>
          <internalNodes>
            0 -1 240 -1.8948990851640701e-02</internalNodes>
          <leafValues>
            2.1610169112682343e-01 -4.9902343750000000e-01</leafValues></_>
        <_>
          <internalNodes>
            0 -1 262 7.1040922775864601e-03</internalNodes>
          <leafValues>
            -2.4075107276439667e-01 2.7414348721504211e-01</leafValues></_>
        <_>
          <internalNodes>
            0 -1 287 -1.6688384348526597e-03</internalNodes>
          <leafValues>
            4.1100674867630005e-01 -1.3712538778781891e-01</leafValues></_>
        <_>
          <internalNodes>
            0 -1 47 2.6492995023727417e-01</internalNodes>
          <leafValues>
            4.9060165882110596e-02 -8.0349588394165039e-01</leafValues></_>
        <_>
          <internalNodes>
            0 -1 322 -1.4501616824418306e-03</internalNodes>
          <leafValues>
            3.1373757123947144e-01 -1.6630376875400543e-01</leafValues></_>
        <_>
          <internalNodes>
            0 -1 136 7.0529994554817677e-03</internalNodes>
          <leafValues>
            1.0033626109361649e-01 -4.9073588848114014e-01</leafValues></_>
        <_>
          <internalNodes>
            0 -1 318 -1.5926354099065065e-03</internalNodes>
          <leafValues>
            3.5919672250747681e-01 -1.1097445338964462e-01</leafValues></_>
        <_>
          <internalNodes>
            0 -1 166 1.6807433217763901e-02</internalNodes>
          <leafValues>
            -1.0478450357913971e-01 5.3786718845367432e-01</leafValues></_>
        <_>
          <internalNodes>
            0 -1 127 -6.3879333902150393e-04</internalNodes>
          <leafValues>
            3.2015636563301086e-01 -2.0364998281002045e-01</leafValues></_>
        <_>
          <internalNodes>
            0 -1 39 -1.6516831237822771e-03</internalNodes>
          <leafValues>
            4.5778876543045044e-01 -1.0875980556011200e-01</leafValues></_>
        <_>
          <internalNodes>
            0 -1 458 4.8479251563549042e-04</internalNodes>
          <leafValues>
            -1.9598852097988129e-01 2.3282556235790253e-01</leafValues></_>
        <_>
          <internalNodes>
            0 -1 50 2.8254531323909760e-02</internalNodes>
          <leafValues>
            1.0090307146310806e-01 -5.8052551746368408e-01</leafValues></_>
        <_>
          <internalNodes>
            0 -1 290 3.3123567700386047e-03</internalNodes>
          <leafValues>
            8.8532321155071259e-02 -4.9576121568679810e-01</leafValues></_>
        <_>
          <internalNodes>
            0 -1 291 2.9255379922688007e-03</internalNodes>
          <leafValues>
            -1.8637107312679291e-01 3.0776384472846985e-01</leafValues></_>
        <_>
          <internalNodes>
            0 -1 74 -1.8505584448575974e-02</internalNodes>
          <leafValues>
            6.0263288021087646e-01 -1.0469364374876022e-01</leafValues></_>
        <_>
          <internalNodes>
            0 -1 394 1.1530829593539238e-02</internalNodes>
          <leafValues>
            7.3232039809226990e-02 -7.9126942157745361e-01</leafValues></_>
        <_>
          <internalNodes>
            0 -1 396 -7.1885501965880394e-03</internalNodes>
          <leafValues>
            -5.1832479238510132e-01 8.2462511956691742e-02</leafValues></_>
        <_>
          <internalNodes>
            0 -1 87 8.1806182861328125e-03</internalNodes>
          <leafValues>
            6.9918937981128693e-02 -6.7746800184249878e-01</leafValues></_>
        <_>
          <internalNodes>
            0 -1 349 6.1317533254623413e-04</internalNodes>
          <leafValues>
            1.6271746158599854e-01 -3.3012175559997559e-01</leafValues></_>
        <_>
          <internalNodes>
            0 -1 299 1.1270719114691019e-03</internalNodes>
          <leafValues>
            -1.3935366272926331e-01 4.6075454354286194e-01</leafValues></_>
        <_>
          <internalNodes>
            0 -1 181 -3.8904410321265459e-03</internalNodes>
          <leafValues>
            -5.6137478351593018e-01 9.3740060925483704e-02</leafValues></_>
        <_>
          <internalNodes>
            0 -1 133 -5.7433865964412689e-02</internalNodes>
          <leafValues>
            3.2044091820716858e-01 -1.6363121569156647e-01</leafValues></_>
        <_>
          <internalNodes>
            0 -1 417 -1.1970684136031196e-04</internalNodes>
          <leafValues>
            -3.0879667401313782e-01 1.7323412001132965e-01</leafValues></_>
        <_>
          <internalNodes>
            0 -1 283 3.4152035368606448e-04</internalNodes>
          <leafValues>
            -2.0104390382766724e-01 2.8102055191993713e-01</leafValues></_>
        <_>
          <internalNodes>
            0 -1 148 1.0127033293247223e-01</internalNodes>
          <leafValues>
            1.0272362083196640e-01 -5.2246004343032837e-01</leafValues></_>
        <_>
          <internalNodes>
            0 -1 43 2.2257516160607338e-02</internalNodes>
          <leafValues>
            6.5578773617744446e-02 -6.9292318820953369e-01</leafValues></_>
        <_>
          <internalNodes>
            0 -1 270 2.6433989405632019e-03</internalNodes>
          <leafValues>
            -1.7385765910148621e-01 3.2135039567947388e-01</leafValues></_>
        <_>
          <internalNodes>
            0 -1 366 -4.8859650269150734e-03</internalNodes>
          <leafValues>
            -5.6784754991531372e-01 1.0571995377540588e-01</leafValues></_>
        <_>
          <internalNodes>
            0 -1 302 -6.4438744448125362e-04</internalNodes>
          <leafValues>
            2.6562124490737915e-01 -2.1021147072315216e-01</leafValues></_>
        <_>
          <internalNodes>
            0 -1 211 1.1240763962268829e-01</internalNodes>
          <leafValues>
            -7.7228680253028870e-02 7.8229707479476929e-01</leafValues></_>
        <_>
          <internalNodes>
            0 -1 277 -5.8039911091327667e-03</internalNodes>
          <leafValues>
            -4.4098132848739624e-01 1.2025525420904160e-01</leafValues></_>
        <_>
          <internalNodes>
            0 -1 391 1.4138227328658104e-02</internalNodes>
          <leafValues>
            -8.6397133767604828e-02 6.9910860061645508e-01</leafValues></_></weakClassifiers></_>
    <!-- stage 18 -->
    <_>
      <maxWeakCount>23</maxWeakCount>
      <stageThreshold>-1.1238983869552612e+00</stageThreshold>
      <weakClassifiers>
        <_>
          <internalNodes>
            0 -1 248 -1.1792967095971107e-02</internalNodes>
          <leafValues>
            8.2432430982589722e-01 -4.3929174542427063e-01</leafValues></_>
        <_>
          <internalNodes>
            0 -1 236 -6.4097684808075428e-03</internalNodes>
          <leafValues>
            5.8673644065856934e-01 -1.7238573729991913e-01</leafValues></_>
        <_>
          <internalNodes>
            0 -1 463 -2.3862472735345364e-03</internalNodes>
          <leafValues>
            -4.1590759158134460e-01 1.6342946887016296e-01</leafValues></_>
        <_>
          <internalNodes>
            0 -1 295 6.8864622153341770e-03</internalNodes>
          <leafValues>
            2.3081985116004944e-01 -2.9627802968025208e-01</leafValues></_>
        <_>
          <internalNodes>
            0 -1 237 -1.0705639142543077e-03</internalNodes>
          <leafValues>
            2.9675972461700439e-01 -2.4688170850276947e-01</leafValues></_>
        <_>
          <internalNodes>
            0 -1 466 -1.1232956312596798e-03</internalNodes>
          <leafValues>
            3.1675490736961365e-01 -2.2550629079341888e-01</leafValues></_>
        <_>
          <internalNodes>
            0 -1 263 -2.1388867869973183e-02</internalNodes>
          <leafValues>
            -7.2751152515411377e-01 1.2788629531860352e-01</leafValues></_>
        <_>
          <internalNodes>
            0 -1 399 -3.0982405878603458e-03</internalNodes>
          <leafValues>
            6.1928409337997437e-01 -1.5655945241451263e-01</leafValues></_>
        <_>
          <internalNodes>
            0 -1 201 -2.5465846993029118e-03</internalNodes>
          <leafValues>
            5.5319142341613770e-01 -9.4179339706897736e-02</leafValues></_>
        <_>
          <internalNodes>
            0 -1 438 7.9081114381551743e-04</internalNodes>
          <leafValues>
            -1.7471607029438019e-01 4.1284793615341187e-01</leafValues></_>
        <_>
          <internalNodes>
            0 -1 415 -2.9778515454381704e-04</internalNodes>
          <leafValues>
            -3.3136752247810364e-01 2.2794321179389954e-01</leafValues></_>
        <_>
          <internalNodes>
            0 -1 6 1.7763253301382065e-02</internalNodes>
          <leafValues>
            -1.8590980768203735e-01 3.9062035083770752e-01</leafValues></_>
        <_>
          <internalNodes>
            0 -1 375 -2.5339946150779724e-03</internalNodes>
          <leafValues>
            5.0947457551956177e-01 -1.5561495721340179e-01</leafValues></_>
        <_>
          <internalNodes>
            0 -1 336 3.8352730916813016e-04</internalNodes>
          <leafValues>
            -2.2082065045833588e-01 3.3087715506553650e-01</leafValues></_>
        <_>
          <internalNodes>
            0 -1 206 -2.7611823752522469e-03</internalNodes>
          <leafValues>
            -5.0479149818420410e-01 1.3210846483707428e-01</leafValues></_>
        <_>
          <internalNodes>
            0 -1 102 8.8730739662423730e-05</internalNodes>
          <leafValues>
            -2.6417741179466248e-01 3.2080522179603577e-01</leafValues></_>
        <_>
          <internalNodes>
            0 -1 303 -1.5643233433365822e-02</internalNodes>
          <leafValues>
            -5.9538102149963379e-01 1.1396334320306778e-01</leafValues></_>
        <_>
          <internalNodes>
            0 -1 327 -6.9443807005882263e-03</internalNodes>
          <leafValues>
            -4.3618583679199219e-01 1.6969911754131317e-01</leafValues></_>
        <_>
          <internalNodes>
            0 -1 357 2.7957682032138109e-03</internalNodes>
          <leafValues>
            -1.3599532842636108e-01 5.7753086090087891e-01</leafValues></_>
        <_>
          <internalNodes>
            0 -1 316 9.2027161736041307e-04</internalNodes>
          <leafValues>
            -1.9724674522876740e-01 4.2523106932640076e-01</leafValues></_>
        <_>
          <internalNodes>
            0 -1 167 -6.8543455563485622e-04</internalNodes>
          <leafValues>
            3.6049297451972961e-01 -2.0001557469367981e-01</leafValues></_>
        <_>
          <internalNodes>
            0 -1 9 3.8919431972317398e-05</internalNodes>
          <leafValues>
            -2.9397395253181458e-01 2.7810117602348328e-01</leafValues></_>
        <_>
          <internalNodes>
            0 -1 199 3.1157608609646559e-03</internalNodes>
          <leafValues>
