<?xml version="1.0"?>
<opencv_storage>
<cascade>
  <stageType>BOOST</stageType>
  <featureType>LBP</featureType>
  <height>45</height>
  <width>25</width>
  <stageParams>
    <boostType>GAB</boostType>
    <minHitRate>9.9900001287460327e-01</minHitRate>
    <maxFalseAlarm>2.0000000298023224e-01</maxFalseAlarm>
    <weightTrimRate>9.4999999999999996e-01</weightTrimRate>
    <maxDepth>1</maxDepth>
    <maxWeakCount>100</maxWeakCount></stageParams>
  <featureParams>
    <maxCatCount>256</maxCatCount>
    <featSize>1</featSize></featureParams>
  <stageNum>10</stageNum>
  <stages>
    <!-- stage 0 -->
    <_>
      <maxWeakCount>2</maxWeakCount>
      <stageThreshold>-8.8856853544712067e-02</stageThreshold>
      <weakClassifiers>
        <_>
          <internalNodes>
            0 -1 8 -174852610 -4230661 -1785342017 -2387489 -356648709
            -89400581 -625345537 -1025</internalNodes>
          <leafValues>
            -9.9510705471038818e-01 9.1380143165588379e-01</leafValues></_>
        <_>
          <internalNodes>
            0 -1 4 -34603009 -69214003 -922385969 -807563313 -83121745
            -72498549 -275804241 -21521</internalNodes>
          <leafValues>
            -8.9392626285552979e-01 9.0625017881393433e-01</leafValues></_></weakClassifiers></_>
    <!-- stage 1 -->
    <_>
      <maxWeakCount>2</maxWeakCount>
      <stageThreshold>-1.4445421099662781e-01</stageThreshold>
      <weakClassifiers>
        <_>
          <internalNodes>
            0 -1 20 -69732865 -581971465 -1816426577 -2106913 -611583493
            -67164461 -872742365 -21717</internalNodes>
          <leafValues>
            -9.2256504297256470e-01 8.7200778722763062e-01</leafValues></_>
        <_>
          <internalNodes>
            0 -1 24 -134217737 -1075889709 -119799809 1006581111
            -1113637377 -621293316 867122175 -1073792513</internalNodes>
          <leafValues>
            -9.9393820762634277e-01 7.7811080217361450e-01</leafValues></_></weakClassifiers></_>
    <!-- stage 2 -->
    <_>
      <maxWeakCount>3</maxWeakCount>
      <stageThreshold>-1.0291205644607544e+00</stageThreshold>
      <weakClassifiers>
        <_>
          <internalNodes>
            0 -1 7 -17 -168560641 -669527565 -588917283 -2361349
            -225128253 -429463045 -103354165</internalNodes>
          <leafValues>
            -9.3337297439575195e-01 9.0589398145675659e-01</leafValues></_>
        <_>
          <internalNodes>
            0 -1 12 -201328129 -136843505 -174619762 -236456054
            -492572726 -211295736 -656940082 -167776370</internalNodes>
          <leafValues>
            -9.5662552118301392e-01 8.0485051870346069e-01</leafValues></_>
        <_>
          <internalNodes>
            0 -1 35 -67108865 -168080901 -653795111 -201328509
            -137363969 -74738981 -605300267 -570425345</internalNodes>
          <leafValues>
            -8.5816550254821777e-01 8.6087793111801147e-01</leafValues></_></weakClassifiers></_>
    <!-- stage 3 -->
    <_>
      <maxWeakCount>2</maxWeakCount>
      <stageThreshold>-1.3576528429985046e-01</stageThreshold>
      <weakClassifiers>
        <_>
          <internalNodes>
            0 -1 11 -35651585 -576728617 -702838785 -31264418 -871503137
            -3437829 -374613025 -1025</internalNodes>
          <leafValues>
            -9.3013101816177368e-01 8.3500236272811890e-01</leafValues></_>
        <_>
          <internalNodes>
            0 -1 9 -135273809 -335547457 -629937621 -207904117
            -1689544481 -929836921 -539232337 -8193</internalNodes>
          <leafValues>
            -8.9367705583572388e-01 7.9436570405960083e-01</leafValues></_></weakClassifiers></_>
    <!-- stage 4 -->
    <_>
      <maxWeakCount>4</maxWeakCount>
      <stageThreshold>-3.4686687588691711e-01</stageThreshold>
      <weakClassifiers>
        <_>
          <internalNodes>
            0 -1 19 -1 -11011617 2098174974 -98905634 -265896961
            -23351121 -1180591116 -9217</internalNodes>
          <leafValues>
            -9.3306559324264526e-01 7.4977332353591919e-01</leafValues></_>
        <_>
          <internalNodes>
            0 -1 30 -555748353 -103300997 -993671911 -448821985
            -322506694 -1945477087 -758267586 -33556689</internalNodes>
          <leafValues>
            -8.9041125774383545e-01 7.2173756361007690e-01</leafValues></_>
        <_>
          <internalNodes>
            0 -1 10 -6293505 -287328385 -711393034 -25168305 -344878197
            -2371197 -888555121 -1057</internalNodes>
          <leafValues>
            -8.2214981317520142e-01 7.5501281023025513e-01</leafValues></_>
        <_>
          <internalNodes>
            0 -1 23 -268456129 -273163881 -1445231297 -284176545
            -738209581 -49180517 -1387020465 -268435585</internalNodes>
          <leafValues>
            -8.1934219598770142e-01 7.2159713506698608e-01</leafValues></_></weakClassifiers></_>
    <!-- stage 5 -->
    <_>
      <maxWeakCount>5</maxWeakCount>
      <stageThreshold>-1.2977681159973145e+00</stageThreshold>
      <weakClassifiers>
        <_>
          <internalNodes>
            0 -1 38 -790691745 -673496485 -712970017 -664592035
            -204800801 -859788078 -775108097 -1312001</internalNodes>
          <leafValues>
            -8.2076078653335571e-01 7.1335506439208984e-01</leafValues></_>
        <_>
          <internalNodes>
            0 -1 21 2069098973 1393677263 -1614546113 -486563041
            -1476322863 -2121775544 -780009985 -356798917</internalNodes>
          <leafValues>
            -8.4658765792846680e-01 6.3714182376861572e-01</leafValues></_>
        <_>
          <internalNodes>
            0 -1 13 -244057093 -519854398 -1018051725 -1420804015
            -475860073 -535650303 -516774087 -269229193</internalNodes>
          <leafValues>
            -9.0703105926513672e-01 5.6106573343276978e-01</leafValues></_>
        <_>
          <internalNodes>
            0 -1 17 -705432961 -639897551 1428221984 -713098192
            -1310473492 -2146783062 -259721332 -513</internalNodes>
          <leafValues>
            -8.4475111961364746e-01 5.3751617670059204e-01</leafValues></_>
        <_>
          <internalNodes>
            0 -1 33 9959903 276844629 273930879 185402445 -1937645330
            -2113699786 -924069380 -806621953</internalNodes>
          <leafValues>
            -7.9502063989639282e-01 5.8700102567672729e-01</leafValues></_></weakClassifiers></_>
    <!-- stage 6 -->
    <_>
      <maxWeakCount>6</maxWeakCount>
      <stageThreshold>-3.9501950144767761e-01</stageThreshold>
      <weakClassifiers>
        <_>
          <internalNodes>
            0 -1 34 -1901187273 -956513905 -1741824613 -644097065
            1262744497 -376864640 -1155413507 -2098529</internalNodes>
          <leafValues>
            -8.5535466670989990e-01 6.5870910882949829e-01</leafValues></_>
        <_>
          <internalNodes>
            0 -1 32 -683280897 1879113872 -1874247173 829239301
            -203316229 -1476029438 -1599274445 -139461637</internalNodes>
          <leafValues>
            -8.2510215044021606e-01 6.4014780521392822e-01</leafValues></_>
        <_>
          <internalNodes>
            0 -1 31 -79301665 -779941389 -1050557185 -541601281
            -1592919618 -1157038048 -607387718 -268718936</internalNodes>
          <leafValues>
            -7.7418118715286255e-01 6.3369834423065186e-01</leafValues></_>
        <_>
          <internalNodes>
            0 -1 2 -383910777 1157853504 -2138747887 -933936827
            -2146090996 -1994342400 -799887081 -78650025</internalNodes>
          <leafValues>
            -7.5337672233581543e-01 6.4467680454254150e-01</leafValues></_>
        <_>
          <internalNodes>
            0 -1 16 -518544459 1909559571 -1055583815 2010419349
            -535788549 -200716032 -502232071 -1157107181</internalNodes>
          <leafValues>
            -7.4230992794036865e-01 6.7705023288726807e-01</leafValues></_>
        <_>
          <internalNodes>
            0 -1 25 -765992625 285327617 -1022691969 1095367067
            -1040060301 -2147483374 -1737760223 -225450077</internalNodes>
          <leafValues>
            -6.4713668823242188e-01 7.2806549072265625e-01</leafValues></_></weakClassifiers></_>
    <!-- stage 7 -->
    <_>
      <maxWeakCount>6</maxWeakCount>
      <stageThreshold>-6.4425683021545410e-01</stageThreshold>
      <weakClassifiers>
        <_>
          <internalNodes>
            0 -1 28 -1155541505 -249753275 -2045706017 -61417574
            -267728453 -610565877 26473060 -540023826</internalNodes>
          <leafValues>
            -7.4345886707305908e-01 6.6807311773300171e-01</leafValues></_>
        <_>
          <internalNodes>
            0 -1 29 605528627 908981044 -1055677545 -1036131924
            -530914818 -1870462910 -363273254 -67578898</internalNodes>
          <leafValues>
            -8.3905243873596191e-01 5.3537815809249878e-01</leafValues></_>
        <_>
          <internalNodes>
            0 -1 6 1903819247 -749604674 -797937423 -256837520
            1083237051 -1873768320 -498025744 -258876421</internalNodes>
          <leafValues>
            -8.1142508983612061e-01 5.3227555751800537e-01</leafValues></_>
        <_>
          <internalNodes>
            0 -1 39 -2011483649 294780928 66217 268795905 -2126281990
            -2146824192 125733053 1005574649</internalNodes>
          <leafValues>
            -7.7553081512451172e-01 5.8831268548965454e-01</leafValues></_>
        <_>
          <internalNodes>
            0 -1 3 -787352097 -581447667 18546942 806498610 -1056952307
            1881149440 -2113873254 -246955497</internalNodes>
          <leafValues>
            -7.3147404193878174e-01 6.1238241195678711e-01</leafValues></_>
        <_>
          <internalNodes>
            0 -1 37 -1501096169 -1069395815 287396319 -115523133
            -1207708747 -668794239 -368320237 -842288421</internalNodes>
          <leafValues>
            -8.0268257856369019e-01 5.4914027452468872e-01</leafValues></_></weakClassifiers></_>
    <!-- stage 8 -->
    <_>
      <maxWeakCount>5</maxWeakCount>
      <stageThreshold>-1.2361888885498047e+00</stageThreshold>
      <weakClassifiers>
        <_>
          <internalNodes>
            0 -1 36 -641152598 -572980845 268452106 423690255
            -1869447157 -1197834102 -2004301618 -304367477</internalNodes>
          <leafValues>
            -8.7345677614212036e-01 5.7903492450714111e-01</leafValues></_>
        <_>
          <internalNodes>
            0 -1 5 -497696337 1347489877 1090906124 1075954179
            -1878982654 -134152176 -1610395199 -210778777</internalNodes>
          <leafValues>
            -7.7617609500885010e-01 5.6780713796615601e-01</leafValues></_>
        <_>
          <internalNodes>
            0 -1 22 -1033921665 -9022157 1092747671 957501855 1073744000
            -233746279 663690 -4529217</internalNodes>
          <leafValues>
            -7.6276141405105591e-01 5.6775563955307007e-01</leafValues></_>
        <_>
          <internalNodes>
            0 -1 18 -2146233581 1194795155 270600277 -1442049278
            -2113797909 52494336 -2147368528 1329574078</internalNodes>
          <leafValues>
            -8.9483273029327393e-01 4.9196860194206238e-01</leafValues></_>
        <_>
          <internalNodes>
            0 -1 0 -298604641 -519196605 1090636121 -618948311 100763957
            1611318019 -2096524765 1170457043</internalNodes>
          <leafValues>
            -7.6825487613677979e-01 5.1007789373397827e-01</leafValues></_></weakClassifiers></_>
    <!-- stage 9 -->
    <_>
      <maxWeakCount>6</maxWeakCount>
      <stageThreshold>-3.2636180520057678e-01</stageThreshold>
      <weakClassifiers>
        <_>
          <internalNodes>
            0 -1 15 1879054809 1359024145 285343828 290517018 822124936
            704774144 57804 1375830019</internalNodes>
          <leafValues>
            -6.6794943809509277e-01 7.8415733575820923e-01</leafValues></_>
        <_>
          <internalNodes>
            0 -1 1 -2147360729 1886388480 1342177331 822181888 49202
            545390736 1094729739 1895972995</internalNodes>
          <leafValues>
            -7.6267617940902710e-01 7.1609854698181152e-01</leafValues></_>
        <_>
          <internalNodes>
            0 -1 14 16842754 1343291649 0 -771747839 16 117571584 0
            -209518590</internalNodes>
          <leafValues>
            -9.0675628185272217e-01 6.0296452045440674e-01</leafValues></_>
        <_>
          <internalNodes>
            0 -1 40 -904969198 4786176 131088 -1870659578 136
            -1073709056 276856850 1073922086</internalNodes>
          <leafValues>
            -8.1828957796096802e-01 7.4913752079010010e-01</leafValues></_>
        <_>
          <internalNodes>
            0 -1 27 536904283 16640 -2147483629 16891908 216 24 8242
            -1325383070</internalNodes>
          <leafValues>
            -8.5458207130432129e-01 6.5584605932235718e-01</leafValues></_>
        <_>
          <internalNodes>
            0 -1 26 535822267 1069285307 -1073860740 279624340 -8437762
            1073741822 914171076 -1291132790</internalNodes>
          <leafValues>
            -7.5671064853668213e-01 8.0318373441696167e-01</leafValues></_></weakClassifiers></_></stages>
  <features>
    <_>
      <rect>
        0 0 5 4</rect></_>
    <_>
      <rect>
        0 3 7 3</rect></_>
    <_>
      <rect>
        0 5 6 13</rect></_>
    <_>
      <rect>
        0 37 5 2</rect></_>
    <_>
      <rect>
        1 10 7 6</rect></_>
    <_>
      <rect>
        1 16 6 9</rect></_>
    <_>
      <rect>
        1 16 8 3</rect></_>
    <_>
      <rect>
        1 17 8 3</rect></_>
    <_>
      <rect>
        1 17 8 5</rect></_>
    <_>
      <rect>
        1 18 7 7</rect></_>
    <_>
      <rect>
        2 22 3 2</rect></_>
    <_>
      <rect>
        2 25 5 2</rect></_>
    <_>
      <rect>
        3 6 7 9</rect></_>
    <_>
      <rect>
        3 9 5 7</rect></_>
    <_>
      <rect>
        3 23 3 2</rect></_>
    <_>
      <rect>
        3 39 7 2</rect></_>
    <_>
      <rect>
        4 16 5 2</rect></_>
    <_>
      <rect>
        5 7 6 9</rect></_>
    <_>
      <rect>
        5 12 4 2</rect></_>
    <_>
      <rect>
        5 13 5 1</rect></_>
    <_>
      <rect>
        6 20 6 6</rect></_>
    <_>
      <rect>
        6 21 4 6</rect></_>
    <_>
      <rect>
        6 25 2 2</rect></_>
    <_>
      <rect>
        6 28 5 3</rect></_>
    <_>
      <rect>
        7 9 4 6</rect></_>
    <_>
      <rect>
        7 17 5 9</rect></_>
    <_>
      <rect>
        7 38 4 2</rect></_>
    <_>
      <rect>
        8 3 4 12</rect></_>
    <_>
      <rect>
        8 11 4 2</rect></_>
    <_>
      <rect>
        9 6 3 11</rect></_>
    <_>
      <rect>
        9 6 5 8</rect></_>
    <_>
      <rect>
        9 26 3 2</rect></_>
    <_>
      <rect>
        10 20 5 6</rect></_>
    <_>
      <rect>
        10 25 4 2</rect></_>
    <_>
      <rect>
        11 22 1 1</rect></_>
    <_>
      <rect>
        11 25 4 2</rect></_>
    <_>
      <rect>
        12 20 4 1</rect></_>
    <_>
      <rect>
        12 22 1 1</rect></_>
    <_>
      <rect>
        13 17 2 2</rect></_>
    <_>
      <rect>
        14 25 2 2</rect></_>
    <_>
      <rect>
        19 1 2 4</rect></_></features></cascade>
</opencv_storage>
